tree
version=v4
num_class=1
num_tree_per_iteration=1
label_index=0
max_feature_idx=5
objective=binary sigmoid:1
feature_names=Age Alcohol_Intake BMI Gender Physical_Activity Smoking_Status
feature_infos=[21:80] [0:1] [3.5:86] [1:2] [0:1] [0:1]
tree_sizes=3390 3436 3441 3438 3450 3447 3441 3462 3454 3447 3447 3452 3458 3457 3471 3479 3462 3461 3447 3467 3467 3471 3463 3450 3468 3462 3463 3444 3439 3465 3447 3449 3470 3464 3475 3474 3465 3495 3478 3478 3469 3499 3469 3495 3462 3479 3469 3457 3464 3478 3468 3503 3459 3477 3473 3455 3480 3491 3491 3456 3468 3448 3479 3432 3440 3476 3415 3451 3473 3433 3473 3427 3473 3462 3458 3452 3432 3438 3465 3470 3434 3438 3438 3441 3477 3434 3444 3443 3464 3411 3487 3432 3454 3427 3451 3426 3458 3436 3411 3408

Tree=0
num_leaves=31
num_cat=0
split_feature=0 0 0 5 0 0 0 0 0 0 2 2 3 0 3 2 2 0 0 0 0 0 2 2 0 2 3 4 0 3
split_gain=2688.93 1428.63 815.183 661.517 425.306 399.989 326.286 476.354 230.174 197.31 163.322 141.049 133.545 129.298 99.9502 90.3414 85.988 77.2381 74.1715 123.108 61.3343 53.8232 41.2198 37.3576 36.1475 34.3583 31.9961 31.8298 24.3106 24.0015
threshold=42.500000000000007 65.500000000000014 62.500000000000007 1.0000000180025095e-35 52.500000000000007 61.500000000000007 57.500000000000007 56.500000000000007 38.000000000000007 51.500000000000007 30.050000000000004 29.750000000000004 1.5000000000000002 41.500000000000007 1.5000000000000002 28.250000000000004 27.250000000000004 47.500000000000007 47.500000000000007 46.500000000000007 46.500000000000007 74.500000000000014 24.150000000000002 25.250000000000004 78.500000000000014 22.050000000000004 1.5000000000000002 1.0000000180025095e-35 60.500000000000007 1.5000000000000002
decision_type=2 2 2 2 2 2 2 2 2 2 2 2 2 2 2 2 2 2 2 2 2 2 2 2 2 2 2 2 2 2
left_child=8 2 3 4 9 6 7 11 -1 10 17 25 -5 15 24 -10 28 20 19 -12 23 -16 -19 -2 27 -6 -24 -3 -8 -9
right_child=1 14 -4 12 5 -7 16 29 13 -11 18 -13 -14 -15 21 -17 -18 22 -20 -21 -22 -23 26 -25 -26 -27 -28 -29 -30 -31
leaf_value=-1.0066465164405241 -0.94263261958602484 -0.96560480966921458 -0.83651428751947421 -0.97744194918688454 -0.92580257078926509 -0.94346043773566202 -0.88405942757099454 -0.93506770463861721 -0.9640208673716909 -0.95831734583430006 -0.871470120657306 -0.84867191601082426 -0.94058255423356063 -0.98985230457018181 -0.96350514968421819 -0.90575571267554555 -0.84463999826894121 -0.93303722508113107 -0.86416897269721682 -0.95120760723028996 -0.96236180067786437 -0.93588116892409312 -0.91502791017712481 -0.9072514343386 -0.96011754092481394 -0.88949383677137694 -0.88031771243933354 -0.9893595973559155 -0.8524454979234859 -0.95844463225423426
leaf_weight=1173.9239248633385 181.9864859431982 192.89355613291264 317.92089775204659 398.71401026844978 73.925697952508926 387.40297451615334 326.40417456626892 280.15011765062809 240.96545808017254 428.40547911822796 98.76958005130291 239.75356139242649 640.48739947378635 411.23694270849228 463.55048306286335 91.902165487408638 365.38685135543346 198.34709122776985 155.32475881278515 94.931907206773758 227.230628952384 284.59373883903027 203.39666076004505 126.44122108817101 228.03856007754803 549.19118233025074 98.567597270011902 524.34730023145676 74.733629077672958 180.57260647416115
leaf_count=5812 901 955 1574 1974 366 1918 1616 1387 1193 2121 489 1187 3171 2036 2295 455 1809 982 769 470 1125 1409 1007 626 1129 2719 488 2596 370 894
internal_value=-0.940142 -0.92637 -0.914292 -0.918932 -0.910263 -0.896796 -0.888146 -0.90318 -0.992856 -0.928663 -0.91949 -0.881262 -0.954725 -0.971101 -0.966651 -0.947934 -0.862187 -0.929456 -0.889909 -0.910549 -0.94265 -0.952997 -0.915329 -0.928128 -0.977458 -0.893801 -0.903698 -0.982971 -0.87817 -0.94423
internal_weight=9259.5 7341.47 5648.04 5330.12 4290.92 2477.52 2090.12 1323.59 1918.03 1813.4 1385 862.87 1039.2 744.105 1693.42 332.868 766.525 1035.97 349.026 193.701 535.658 748.144 500.311 308.428 945.279 623.117 301.964 717.241 401.138 460.723
internal_count=45843 36347 27963 26389 21244 12266 10348 6553 9496 8978 6857 4272 5145 3684 8384 1648 3795 5129 1728 959 2652 3704 2477 1527 4680 3085 1495 3551 1986 2281
is_linear=0
shrinkage=1


Tree=1
num_leaves=31
num_cat=0
split_feature=0 0 0 5 0 0 0 0 0 0 0 2 3 0 2 3 2 0 0 0 0 0 2 2 0 2 4 2 3 2
split_gain=2471.12 1281.62 689.039 587.235 369.646 346.569 274.595 242.991 222.679 200.457 176.905 142.103 123.473 121.513 116.877 93.4508 81.7755 68.6912 62.5543 106.925 55.672 49.2895 46.6834 36.0792 34.172 33.0801 30.3344 29.5225 27.3682 23.9147
threshold=42.500000000000007 65.500000000000014 62.500000000000007 1.0000000180025095e-35 52.500000000000007 61.500000000000007 58.500000000000007 56.500000000000007 38.000000000000007 57.500000000000007 51.500000000000007 30.050000000000004 1.5000000000000002 41.500000000000007 29.750000000000004 1.5000000000000002 28.850000000000005 47.500000000000007 47.500000000000007 46.500000000000007 46.500000000000007 74.500000000000014 27.250000000000004 24.150000000000002 78.500000000000014 25.250000000000004 1.0000000180025095e-35 22.050000000000004 1.5000000000000002 28.550000000000004
decision_type=2 2 2 2 2 2 2 2 2 2 2 2 2 2 2 2 2 2 2 2 2 2 2 2 2 2 2 2 2 2
left_child=8 2 3 4 10 6 7 14 -1 -9 11 17 -5 16 27 24 -10 20 19 -13 25 -17 -8 -19 26 -2 -3 -6 -25 -11
right_child=1 15 -4 12 5 -7 22 9 13 29 -12 18 -14 -15 -16 21 -18 23 -20 -21 -22 -23 -24 28 -26 -27 -28 -29 -30 -31
leaf_value=-0.065155888485062735 -0.0023687923455755627 -0.024471578963520313 0.094171978394768929 -0.036044677367493054 0.013535398741962518 -0.0031572811174349191 0.063554573774621745 -0.0038922050709215188 -0.021663390077138241 0.042424442400344091 -0.017409533974780813 0.06331540842016152 -0.00041865835767056691 -0.048316787599949139 0.083538217657039657 -0.022431996254938719 0.035885490192515274 0.006728020574521331 0.069832681364812563 -0.01056509261597152 -0.021323025723593625 0.004040005038927535 0.091879277896333156 0.023593391684729487 -0.019149638051640099 0.030793964440437527 -0.047826821728827032 0.04705675499307338 0.055364863963885846 0.077580093568250838
leaf_weight=1139.1942337155342 181.78771480917931 190.72808437049389 331.96071818470955 392.13960537314415 74.388634979724884 386.83908268809319 293.93223741650581 459.89022935926914 249.7045304775238 134.73727256059647 424.97828838229179 101.6894498616457 640.36369483172894 402.17533028125763 249.13293039798737 458.77795815467834 82.000195980072021 198.9636062681675 160.39429751038551 94.470303505659103 225.00622272491455 285.12461602687836 288.00559744238853 205.62138664722443 226.03275525569916 128.24884417653084 512.90904009342194 561.22479435801506 101.11230111122131 75.47007991373539
leaf_count=5812 901 955 1574 1974 366 1918 1416 2281 1248 650 2121 489 3171 2036 1187 2295 400 982 769 470 1125 1409 1370 1007 1129 626 2596 2719 488 359
internal_value=-2.69108e-05 0.0129842 0.0242613 0.0199464 0.0279993 0.0403906 0.0482745 0.0373089 -0.0513188 0.0145966 0.0108389 0.0194304 -0.0139492 -0.0298395 0.054511 -0.025494 -0.00743682 0.0100975 0.0466723 0.0277346 -0.00239073 -0.0122857 0.0775727 0.0233104 -0.036063 0.0113492 -0.0414961 0.0431336 0.0340666 0.0550463
internal_weight=9257 7383.93 5710.36 5378.4 4345.89 2523.62 2136.78 1554.84 1873.07 670.098 1822.27 1397.29 1032.5 733.88 884.746 1673.57 331.705 1040.74 356.554 196.16 535.043 743.903 581.938 505.697 929.67 310.037 703.637 635.613 306.734 210.207
internal_count=45843 36347 27963 26389 21244 12266 10348 7562 9496 3290 8978 6857 5145 3684 4272 8384 1648 5129 1728 959 2652 3704 2786 2477 4680 1527 3551 3085 1495 1009
is_linear=0
shrinkage=0.05


Tree=2
num_leaves=31
num_cat=0
split_feature=0 0 5 0 0 0 0 0 0 0 2 3 0 2 3 0 0 2 2 0 2 0 2 0 4 2 3 2 4 2
split_gain=2273.39 1151.58 596.889 485.648 270.883 301.977 232.4 359.709 215.945 158.782 125.674 125.396 114.232 98.382 87.38 85.6974 120.968 74.1157 58.522 51.0885 45.8127 45.1239 34.6949 32.3255 28.9424 25.5168 23.5782 22.3652 29.8646 25.8212
threshold=42.500000000000007 65.500000000000014 1.0000000180025095e-35 52.500000000000007 62.500000000000007 61.500000000000007 57.500000000000007 56.500000000000007 38.000000000000007 51.500000000000007 24.150000000000002 1.5000000000000002 41.500000000000007 29.750000000000004 1.5000000000000002 47.500000000000007 46.500000000000007 28.250000000000004 27.250000000000004 62.500000000000007 30.050000000000004 74.500000000000014 30.050000000000004 78.500000000000014 1.0000000180025095e-35 22.050000000000004 1.5000000000000002 29.050000000000004 1.0000000180025095e-35 29.750000000000004
decision_type=2 2 2 2 2 2 2 2 2 2 2 2 2 2 2 2 2 2 2 2 2 2 2 2 2 2 2 2 2 2
left_child=8 2 3 9 5 6 7 13 -1 10 -2 -4 17 25 23 16 22 -10 -8 -13 26 -16 -12 24 -3 -5 -17 28 -9 -29
right_child=1 14 11 4 -6 -7 18 27 12 -11 15 19 -14 -15 21 20 -18 -19 -20 -21 -22 -23 -24 -25 -26 -27 -28 29 -30 -31
leaf_value=-0.063904852607474222 -0.0051427309757636763 -0.02351417008685559 -0.033850824473968193 0.012782093050242299 0.086358790927339904 -0.0030037004520835362 0.053152388154047193 0.026195946561506551 -0.022069819792710658 -0.016672275502308032 0.022572080836313388 -0.00039780080425677193 -0.04697728670555669 0.076796871703395955 -0.021533331547485345 0.022185157389844081 -0.012684134247532975 0.030346192426404517 0.079973495317537335 0.084210347960759643 0.064500447366997143 0.0038310774036812729 0.058617656399245592 -0.018353782216997124 -0.046489321999350464 0.043831780172585391 0.051407644590090423 0.10282138799873267 -0.01905204778815486 0.0064570916990553326
leaf_weight=1104.3069204688072 406.53411227464676 188.6237757652998 388.74570468068123 74.822541296482086 322.4926763176918 386.30177065730095 421.44311264157295 42.890719503164291 236.10538072884083 421.66885922849178 185.54085075855255 640.24613289535046 393.19105136394501 257.2296597212553 454.14862096309662 207.68484875559807 235.85943588614464 94.406906440854073 393.06143906712532 18.353241741657257 164.8497946113348 285.62696000933647 104.27676343917847 224.09283091127872 501.57286548614502 572.09842593967915 103.38920032978058 7.2564289569854727 243.47759932279587 165.47738116979599
leaf_count=5812 2016 955 1988 366 1476 1918 1986 213 1193 2121 902 3171 2036 1187 2295 1007 1186 455 1809 84 769 1409 489 1129 2596 2719 488 36 1210 822
internal_value=-4.89454e-05 0.0122591 0.0228128 0.0303952 0.0431696 0.0377375 0.0449644 0.0323391 -0.0499929 0.0102434 0.0183033 -0.011332 -0.0287645 0.0506408 -0.024516 0.0278197 0.0139037 -0.00709781 0.0660956 0.00195998 0.0431905 -0.0117401 0.0355413 -0.0348534 -0.0402104 0.0402406 0.0318976 -0.00370411 -0.012275 0.0105053
internal_weight=9245.78 7417.77 5763.7 4716.36 2886.55 2564.06 2177.76 1363.25 1828.01 1829.8 1408.14 1047.35 723.703 904.151 1654.07 1001.6 525.677 330.512 814.505 658.599 475.924 739.776 289.818 914.289 690.197 646.921 311.074 459.102 286.368 172.734
internal_count=45843 36347 27963 22720 13742 12266 10348 6553 9496 8978 6857 5243 3684 4272 8384 4841 2577 1648 3795 3255 2264 3704 1391 4680 3551 3085 1495 2281 1423 858
is_linear=0
shrinkage=0.05


Tree=3
num_leaves=31
num_cat=0
split_feature=0 0 5 0 0 0 0 0 0 0 0 3 2 0 2 3 0 0 2 0 0 2 2 0 2 4 3 3 2 2
split_gain=2093.41 1036.1 530.13 424.72 231.025 264.376 209.843 204.068 185.098 150.145 142.646 115.577 111.566 107.406 84.3375 81.6991 74.7979 107.56 68.0696 44.7272 41.297 40.0287 36.2152 30.5918 29.9818 27.6381 26.1016 21.6634 27.3014 21.4725
threshold=42.500000000000007 65.500000000000014 1.0000000180025095e-35 52.500000000000007 62.500000000000007 61.500000000000007 38.000000000000007 58.500000000000007 56.500000000000007 57.500000000000007 51.500000000000007 1.5000000000000002 24.150000000000002 41.500000000000007 29.450000000000003 1.5000000000000002 47.500000000000007 46.500000000000007 27.250000000000004 62.500000000000007 74.500000000000014 31.250000000000004 24.950000000000003 78.500000000000014 30.050000000000004 1.0000000180025095e-35 1.5000000000000002 1.5000000000000002 23.050000000000004 22.050000000000004
decision_type=2 2 2 2 2 2 2 2 2 2 2 2 2 2 2 2 2 2 2 2 2 2 2 2 2 2 2 2 2 2
left_child=6 2 3 10 5 7 -1 8 14 27 12 -4 -2 18 29 23 17 24 -8 -13 -17 26 -9 25 -14 -3 -18 28 -10 -5
right_child=1 15 11 4 -6 -7 13 22 9 -11 -12 19 16 -15 -16 20 21 -19 -20 -21 -22 -23 -24 -25 -26 -27 -28 -29 -30 -31
leaf_value=-0.062740281358757352 -0.0048969685345881947 -0.022589325108443085 -0.032691079433897673 0.012075581725610901 0.07963219625209518 -0.0028574015130243616 -0.023599451818637297 0.048493889626370301 -0.02676981137293959 0.046721454934096296 -0.015962661834001229 -0.00037797911275279155 0.02123781676347342 -0.045686104189585054 0.070038695949144011 -0.020666028638395548 0.022315469531536177 -0.012121459596708017 0.023941006626624409 0.077705516424308271 0.0036333168977657326 0.064497782455448058 0.074688513685184185 -0.017586997968070089 0.054457572355573747 -0.045199546745263906 0.051084202308070509 -0.017147913314671481 0.012785988642729552 0.040509785807745266
leaf_weight=1069.4499191641808 405.61395540833473 186.58208183944225 382.56958159804344 75.229451179504395 331.98617166280746 385.78986662626266 212.75430259108543 191.96623247861862 54.061868220567703 220.00114086270332 418.47646473348141 640.13443015515804 187.29096755385399 384.31587064266205 280.67948985099792 449.66442078351974 239.66557832062244 234.50300034880638 116.53897860646248 18.880650758743286 286.10238745808601 126.62594126164913 422.0441942512989 222.21880386769772 106.56832574307919 490.37823349237442 117.49670399725437 178.37457197904587 225.8905668258667 565.44875025749207
leaf_count=5812 2016 955 1988 366 1476 1918 1086 884 269 1009 2121 3171 902 2036 1264 2295 1144 1186 562 84 1409 577 1902 1129 489 2596 543 894 1118 2642
internal_value=-6.71237e-05 0.0115884 0.0214842 0.028544 0.040355 0.0353388 -0.0487288 0.0419954 0.0325902 0.0127682 0.0096882 -0.010831 0.0172595 -0.0277305 0.0471837 -0.0235733 0.0261386 0.0131322 -0.00677458 0.0018591 -0.0112172 0.0403432 0.0664989 -0.0336838 0.033285 -0.0389678 0.0317796 -0.00352967 0.00514733 0.037171
internal_weight=9227.3 7444.24 5809.3 4767.71 2931.47 2599.49 1783.06 2213.7 1599.69 678.328 1836.24 1041.58 1417.76 713.609 921.358 1634.95 1012.15 528.362 329.293 659.015 735.767 483.788 614.01 899.179 293.859 676.96 357.162 458.327 279.952 640.678
internal_count=45843 36347 27963 22720 13742 12266 9496 10348 7562 3290 8978 5243 6857 3684 4272 8384 4841 2577 1648 3255 3704 2264 2786 4680 1391 3551 1687 2281 1387 3008
is_linear=0
shrinkage=0.05


Tree=4
num_leaves=31
num_cat=0
split_feature=0 0 5 0 0 0 0 0 0 0 0 3 0 2 3 2 0 0 2 0 0 2 2 4 2 0 0 0 0 0
split_gain=1929.17 933.238 471.868 373.066 204.286 199.172 232.397 175.867 161.544 132.803 128.248 106.504 101 99.2278 76.3751 72.7702 65.5228 95.7975 61.6582 39.3687 37.7821 35.7231 30.9254 29.212 26.0729 25.2457 20.8808 20.3774 54.2879 34.2543
threshold=42.500000000000007 65.500000000000014 1.0000000180025095e-35 52.500000000000007 38.000000000000007 62.500000000000007 61.500000000000007 58.500000000000007 56.500000000000007 57.500000000000007 51.500000000000007 1.5000000000000002 41.500000000000007 24.150000000000002 1.5000000000000002 29.750000000000004 47.500000000000007 46.500000000000007 27.250000000000004 62.500000000000007 74.500000000000014 27.450000000000003 24.950000000000003 1.0000000180025095e-35 30.050000000000004 78.500000000000014 47.500000000000007 52.500000000000007 56.500000000000007 51.500000000000007
decision_type=2 2 2 2 2 2 2 2 2 2 2 2 2 2 2 2 2 2 2 2 2 2 2 2 2 2 2 2 2 2
left_child=4 2 3 10 -1 6 7 8 15 -10 13 -4 18 26 23 -5 17 24 -6 27 -16 -18 -9 -3 -15 -25 -2 29 -29 -13
right_child=1 14 11 5 12 -7 -8 22 9 -11 -12 19 -14 16 20 -17 21 -19 -20 -21 -22 -23 -24 25 -26 -27 -28 28 -30 -31
leaf_value=-0.061652442948699773 -0.015814023180476509 -0.018718531001281406 -0.031566856478408255 0.035200588433197511 -0.022675974273290544 0.073825089272308977 -0.0027180591788415281 0.045269291795897067 -0.0033618930972082574 0.043654044510900394 -0.015279795124279067 0.0018724596146052497 -0.044438251077057928 0.019997771995286819 -0.019828996870237446 0.065965674239578762 0.022001991531479616 -0.011581414217289008 0.022517930478383394 0.072073376633049663 0.0034460860261750284 0.049305831224749776 0.069244762240563959 -0.043952633801541449 0.050742792627069211 -0.019711317078642633 0.0069034459110850965 0.048979712292554094 -0.0016344488289818612 -0.034783876154225415
leaf_weight=1034.7844027280807 206.05920374393463 266.5989301353693 376.54051712155342 666.51951672136784 210.4086906015873 339.97634732723236 385.30222737789154 195.26916152238846 457.5637065321207 223.59011045098305 415.39990389347076 193.36079126596451 375.57651656866074 188.91622769832611 445.32634936273098 270.1025043874979 207.59616459906101 233.20014894008636 117.67836526036263 19.326072335243225 286.5524310618639 283.24615703523159 432.18529012799263 479.3582957983017 108.59660616517067 138.41534933447838 198.67649334669113 64.991831719875336 286.60994112491608 95.065691739320755
leaf_count=5812 1034 1375 1988 3085 1086 1476 1918 884 2281 1009 2121 958 2036 902 2295 1187 973 1186 562 84 1409 1291 1902 2596 489 709 982 322 1420 471
internal_value=-8.21593e-05 0.0109658 0.0202601 0.0268497 -0.0475184 0.0378115 0.033157 0.0393135 0.0305986 0.0120712 0.00916904 -0.0103516 -0.0267334 0.0162896 -0.0226639 0.0440726 0.0245908 0.0124128 -0.00646581 0.0017639 -0.0107161 0.037758 0.0617834 -0.0325516 0.0312202 -0.0385212 -0.00466248 -0.000359142 0.00772133 -0.0102095
internal_weight=9202.79 7464.35 5848.09 4812.2 1738.45 2970.51 2630.53 2245.23 1617.78 681.154 1841.69 1035.89 703.664 1426.29 1616.25 936.622 1021.56 530.713 328.087 659.354 731.879 490.842 627.454 884.373 297.513 617.774 404.736 640.028 351.602 288.426
internal_count=45843 36347 27963 22720 9496 13742 12266 10348 7562 3290 8978 5243 3684 6857 8384 4272 4841 2577 1648 3255 3704 2264 2786 4680 1391 3305 2016 3171 1742 1429
is_linear=0
shrinkage=0.05


Tree=5
num_leaves=31
num_cat=0
split_feature=0 0 5 0 0 0 0 0 0 0 0 3 0 2 3 2 0 0 2 0 0 2 0 2 4 2 3 2 3 2
split_gain=1779 841.354 420.854 328.952 199.168 173.28 204.995 152.758 141.539 117.732 115.371 98.0892 94.9711 88.391 71.3784 63.6644 57.5444 85.4457 56.8657 34.8122 34.5544 32.0467 27.747 26.7429 24.9959 22.7972 22.599 19.9162 19.7202 24.9612
threshold=42.500000000000007 65.500000000000014 1.0000000180025095e-35 52.500000000000007 38.000000000000007 62.500000000000007 61.500000000000007 58.500000000000007 56.500000000000007 57.500000000000007 51.500000000000007 1.5000000000000002 41.500000000000007 24.150000000000002 1.5000000000000002 29.450000000000003 47.500000000000007 46.500000000000007 28.850000000000005 62.500000000000007 74.500000000000014 31.250000000000004 78.500000000000014 24.950000000000003 1.0000000180025095e-35 30.050000000000004 1.5000000000000002 23.950000000000003 1.5000000000000002 28.050000000000004
decision_type=2 2 2 2 2 2 2 2 2 2 2 2 2 2 2 2 2 2 2 2 2 2 2 2 2 2 2 2 2 2
left_child=4 2 3 10 -1 6 7 8 15 28 13 -4 18 -2 22 -5 17 25 27 -13 -16 26 24 -9 -3 -15 -18 -6 29 -10
right_child=1 14 11 5 12 -7 -8 23 9 -11 -12 19 -14 16 20 -17 21 -19 -20 -21 -22 -23 -24 -25 -26 -27 -28 -29 -30 -31
leaf_value=-0.060632870369944969 -0.0044406416288251711 -0.020951447382669987 -0.030476233923006142 0.032624999360728116 -0.033877735766778092 0.068747354897694596 -0.0025853529969536806 0.042349098967910802 -0.0084082922287915043 0.040869167278934762 -0.014622805629836661 -0.00034591454237194408 -0.043229399153819514 0.018843226685240376 -0.019021248671402952 0.060667360926207829 0.019051693915144233 -0.011063221726867849 0.028789109789276887 0.067136509043096676 0.0032687915731870725 0.056572023663825667 -0.016031273162231539 0.064461573748042442 -0.042744374043242848 0.047401544544549354 0.045464703009210142 -0.0050830434062857869 -0.016277791014584288 0.021600273083952428
leaf_weight=1000.4476409554482 403.86142373085022 182.95330502092838 370.66654255986214 657.91298449039459 113.26787312328815 346.65041720867157 384.83773827552795 198.21789473295212 154.4958018809557 226.79821953177452 412.43759644031525 639.89823494851589 366.99528813362122 190.42659446597099 441.13461188971996 292.33031468093395 244.94154031574726 231.94957721233368 85.788744688034058 19.699645221233368 286.97851853072643 131.38570007681847 218.40793831646442 440.80661523342133 468.54067236185074 110.39037975668907 120.98192098736763 127.81449168920517 176.72392839193344 125.66030439734459
leaf_count=5812 2016 955 1988 3008 591 1476 1918 884 770 1009 2121 3171 2036 902 2295 1264 1144 1186 400 84 1409 577 1129 1902 2596 489 543 657 894 617
internal_value=-9.47763e-05 0.0103853 0.019127 0.0252912 -0.0463563 0.0354984 0.0311618 0.0368757 0.0287694 0.01142 0.00868195 -0.00989581 -0.0257717 0.015385 -0.0217863 0.0412519 0.023158 0.0117403 -0.00617113 0.00166953 -0.0102359 0.0353899 -0.0314541 0.0576025 -0.0366245 0.0293232 0.0277844 -0.0186117 -0.0031987 0.00505165
internal_weight=9173.4 7479.09 5881.07 4850.81 1694.31 3004.43 2657.78 2272.95 1633.92 683.678 1846.37 1030.26 693.866 1433.94 1598.02 950.243 1030.08 532.767 326.871 659.598 728.113 497.309 869.902 639.025 651.494 300.817 365.923 241.082 456.88 280.156
internal_count=45843 36347 27963 22720 9496 13742 12266 10348 7562 3290 8978 5243 3684 6857 8384 4272 4841 2577 1648 3255 3704 2264 4680 2786 3551 1391 1687 1248 2281 1387
is_linear=0
shrinkage=0.05


Tree=6
num_leaves=31
num_cat=0
split_feature=0 0 5 0 0 0 0 0 0 0 0 3 0 2 3 2 2 2 0 0 0 0 0 0 4 2 0 2 3 2
split_gain=1641.53 759.155 375.928 290.989 194.39 151.908 181.381 133.559 124.448 104.598 103.855 90.34 89.275 79.3401 66.6866 55.889 51.303 47.4067 34.4678 35.8612 32.1024 31.113 55.2302 30.8947 26.4789 24.4726 22.8302 20.8093 19.6536 19.105
threshold=42.500000000000007 65.500000000000014 1.0000000180025095e-35 52.500000000000007 38.000000000000007 62.500000000000007 61.500000000000007 58.500000000000007 56.500000000000007 57.500000000000007 51.500000000000007 1.5000000000000002 41.500000000000007 30.050000000000004 1.5000000000000002 29.750000000000004 28.850000000000005 22.250000000000004 47.500000000000007 46.500000000000007 78.500000000000014 47.500000000000007 46.500000000000007 62.500000000000007 1.0000000180025095e-35 29.050000000000004 78.500000000000014 30.850000000000005 1.5000000000000002 23.850000000000005
decision_type=2 2 2 2 2 2 2 2 2 2 2 2 2 2 2 2 2 2 2 2 2 2 2 2 2 2 2 2 2 2
left_child=4 2 3 10 -1 6 7 8 15 -10 13 -4 16 17 24 29 -6 -2 19 -19 -16 22 -15 -13 -3 -9 -26 -24 -20 -5
right_child=1 14 11 5 12 -7 -8 25 9 -11 -12 23 -14 21 20 -17 -18 18 28 -21 -22 -23 27 -25 26 -27 -28 -29 -30 -31
leaf_value=-0.059674144827345454 -0.017145678010207738 -0.01713998349924499 -0.029417540500993097 0.018550019034109258 -0.017848317838329197 0.064258484622307876 -0.002458985959081548 0.046382350740425085 -0.0030464945417226692 0.038328183700610197 -0.013990868490884193 -0.00032867033536399144 -0.042055795791842619 0.044377196765850495 -0.015064149919599423 0.057516053766656999 0.027051594773864762 0.013907600511823617 0.014431754450476534 -0.015004463684812142 0.011171472173334931 0.049435705744860434 0.10204058161367409 0.06276312937988722 -0.041571106151816695 0.066465737992511001 -0.018246379495165926 -0.013049923081340155 0.036620403477531628 0.036603930646083839
leaf_weight=966.55551207065582 164.72531890869141 261.74760028719902 364.95376056432724 212.94470086693764 238.91392083466053 352.1720615029335 384.39539900422096 407.21045836806297 456.14354066550732 229.66519050300121 409.58758284151554 639.80107554793358 358.59057062864304 111.97518628835678 578.4340303838253 279.51486091315746 86.709398031234741 264.21091178059578 300.57698035240173 180.53928032517433 146.03655600547791 177.14463180303574 4.1112218499183646 20.010240197181702 457.94818639755249 241.73112720251083 136.08512872457504 87.901838600635529 149.40242168307304 469.87799914181232
leaf_count=5812 825 1375 1988 974 1248 1476 1918 1766 2281 1009 2121 3171 2036 489 2988 1187 400 1266 1426 930 716 769 21 84 2596 1020 709 449 682 2111
internal_value=-0.000105077 0.00984363 0.0180764 0.0238536 -0.0452382 0.0333849 0.0293301 0.0346497 0.0270844 0.0108092 0.00822553 -0.00945624 -0.0248451 0.0145421 -0.0209391 0.038683 -0.00589204 0.00750419 0.0120424 0.00217121 -0.00977565 0.0341057 0.0207931 0.00158473 -0.0303896 0.0538634 -0.0362277 -0.00790758 0.0217988 0.0309736
internal_weight=9139.62 7488.85 5908.6 4883.83 1650.77 3033.66 2681.48 2297.09 1648.15 685.809 1850.18 1024.77 684.214 1440.59 1580.25 962.338 325.623 1059.45 894.73 444.75 724.471 381.133 203.988 659.811 855.781 648.942 594.033 92.0131 449.979 682.823
internal_count=45843 36347 27963 22720 9496 13742 12266 10348 7562 3290 8978 5243 3684 6857 8384 4272 1648 5129 4304 2196 3704 1728 959 3255 4680 2786 3305 470 2108 3085
is_linear=0
shrinkage=0.05


Tree=7
num_leaves=31
num_cat=0
split_feature=0 0 5 0 0 0 0 0 0 0 0 0 3 2 3 2 2 0 0 0 0 2 0 4 2 4 2 0 0 0
split_gain=1515.38 685.427 336.268 258.165 189.942 134.04 160.91 117.413 109.787 93.5256 93.0894 83.9169 83.1763 72.5075 62.2866 49.4552 47.2209 44.7254 68.4573 30.7909 27.5051 26.6169 25.1669 22.6182 21.9382 18.8425 24.2403 18.4193 47.8115 31.5479
threshold=42.500000000000007 65.500000000000014 1.0000000180025095e-35 52.500000000000007 38.000000000000007 62.500000000000007 61.500000000000007 58.500000000000007 56.500000000000007 51.500000000000007 57.500000000000007 41.500000000000007 1.5000000000000002 24.150000000000002 1.5000000000000002 29.450000000000003 24.750000000000004 47.500000000000007 46.500000000000007 69.500000000000014 62.500000000000007 27.450000000000003 78.500000000000014 1.0000000180025095e-35 24.950000000000003 1.0000000180025095e-35 29.050000000000004 52.500000000000007 56.500000000000007 51.500000000000007
decision_type=2 2 2 2 2 2 2 2 2 2 2 2 2 2 2 2 2 2 2 2 2 2 2 2 2 2 2 2 2 2
left_child=4 2 3 9 -1 6 7 8 15 13 25 16 -4 -2 22 -5 -6 18 -15 -16 27 -19 23 -3 -9 -10 -27 29 -29 -14
right_child=1 14 12 5 11 -7 -8 24 10 -11 -12 -13 20 17 19 -17 -18 21 -20 -21 -22 -23 -24 -25 -26 26 -28 28 -30 -31
leaf_value=-0.058769716158031941 -0.0042577895179864746 -0.019424159327051202 -0.028389330521770853 0.028793853303997224 -0.027941367537055947 0.060252397480625698 -0.0023386655427460172 0.036854177222051164 0.018282910346000391 -0.013383186692954624 0.035999516879156944 -0.04091418320832263 0.0018115987227852869 0.026103109197912901 -0.024592695357660094 0.053185059716732389 0.010682163390755561 0.017876683149344735 -0.010019838047977851 -0.0023371289937756923 0.05885328599420532 0.041075190258701058 -0.014587911801184829 -0.04042966865421254 0.056608883834757956 -0.017270534302300265 0.0094691721730039737 0.045584339140247954 -0.0015205986153463491 -0.033551292671599085
leaf_weight=933.2055339217186 403.10359361767769 179.56552356481552 359.4066991508007 672.15436044335365 136.94974900782108 356.6849017739296 383.97420924901962 203.58155179023743 85.329242184758186 406.84771393239498 232.22650574147701 350.3773210644722 193.46241721510887 306.22957204282284 226.67015066742897 300.83094821870327 187.45395801961422 213.00172109901905 229.41580148041248 494.36082495748997 20.26565033197403 294.73707708716393 214.87089256942272 447.599289894104 453.84945154190063 238.80952124297619 131.38386470079422 66.353016078472137 286.31931334733963 93.573984012007713
leaf_count=5812 2016 955 1988 3008 731 1476 1918 884 422 2121 1009 2036 958 1391 1199 1264 917 973 1186 2505 84 1291 1129 2596 1902 1210 649 322 1420 471
internal_value=-0.000113553 0.00933607 0.0170982 0.0225215 -0.0441569 0.0314439 0.0276411 0.0326069 0.0255269 0.00779553 0.0102361 -0.0239478 -0.00903527 0.0137524 -0.0201198 0.0363352 -0.00562308 0.0207105 0.0106317 -0.0093336 0.0015045 0.0313432 -0.0293559 -0.0344155 0.0504916 -0.00289822 -0.00778045 -0.000312283 0.00734189 -0.00971672
internal_weight=9102.59 7494.61 5931.54 4912.16 1607.99 3058.82 2702.14 2318.17 1660.73 1853.34 687.749 674.781 1019.38 1446.49 1563.07 972.985 324.404 1043.38 535.645 721.031 659.974 507.739 842.036 627.165 657.431 455.523 370.193 639.709 352.672 287.036
internal_count=45843 36347 27963 22720 9496 13742 12266 10348 7562 8978 3290 3684 5243 6857 8384 4272 1648 4841 2577 3704 3255 2264 4680 3551 2786 2281 1859 3171 1742 1429
is_linear=0
shrinkage=0.05


Tree=8
num_leaves=31
num_cat=0
split_feature=0 0 5 0 0 0 0 0 0 0 0 0 3 2 3 2 2 2 0 0 0 0 4 0 0 0 0 2 0 0
split_gain=1399.38 619.19 301.189 229.652 185.808 118.926 143.079 103.738 97.1003 84.2512 82.9886 78.8792 76.5289 65.9333 58.1521 45.5004 44.3371 40.1554 28.7162 29.2749 28.5355 24.5572 23.9937 23.5205 45.0351 20.7808 20.6364 18.165 18.5002 54.8975
threshold=42.500000000000007 65.500000000000014 1.0000000180025095e-35 52.500000000000007 38.000000000000007 62.500000000000007 61.500000000000007 58.500000000000007 56.500000000000007 51.500000000000007 57.500000000000007 41.500000000000007 1.5000000000000002 30.050000000000004 1.5000000000000002 26.650000000000002 27.250000000000004 22.250000000000004 47.500000000000007 46.500000000000007 74.500000000000014 62.500000000000007 1.0000000180025095e-35 47.500000000000007 46.500000000000007 60.500000000000007 78.500000000000014 24.050000000000004 61.500000000000007 57.500000000000007
decision_type=2 2 2 2 2 2 2 2 2 2 2 2 2 2 2 2 2 2 2 2 2 2 2 2 2 2 2 2 2 2
left_child=4 2 3 9 -1 6 7 8 15 13 -10 16 -4 17 22 -5 -6 -2 19 -19 -16 27 -3 24 -15 -9 -24 -14 29 -29
right_child=1 14 12 5 11 -7 -8 25 10 -11 -12 -13 21 23 20 -17 -18 18 -20 -21 -22 -23 26 -25 -26 -27 -28 28 -30 -31
leaf_value=-0.057913800591992581 -0.016237183799064414 -0.01567132804677903 -0.027390355085008145 0.023284909980102492 -0.01965121661756411 0.056647449621692283 -0.0022241133420990581 0.041766196585719569 -0.0027601822889017523 -0.012798995652089657 0.033857108872720906 -0.039801741207756092 -0.015029215849420494 0.040038545933376586 -0.017044855569195761 0.044806629321189076 0.018632148547470594 0.01216264058422936 0.019538851971089701 -0.013984015708898349 0.0033081648523384227 0.055329792697560491 -0.039317330233890287 0.043816677561044348 -0.0070811871760360747 0.061224602203782022 -0.016886211204764575 0.0031590301056204119 -0.015340196071632943 0.066527353709682865
leaf_weight=900.47859609127045 163.13732519745827 257.23976902663708 354.02840203046799 485.30952906608582 202.66196313500404 360.31536018848419 383.57319727540016 470.99622394144535 454.84343035519123 404.21561931073666 234.51392184197903 342.36749291419983 157.71682520210743 114.15591108798981 430.86770634353161 497.1718992292881 120.65423057973385 267.44527280330658 456.20159283280373 178.50805476307869 286.87413811683655 20.472741186618805 437.50868254899979 181.34353946149349 91.237455919384956 193.61443085968494 133.92118944227695 349.58968326449394 94.301253139972687 37.881699979305267
leaf_count=5812 825 1375 1988 2158 1086 1476 1918 1978 2281 2121 1009 2036 781 489 2295 2114 562 1266 2108 930 1409 84 2596 769 470 808 709 1734 468 188
internal_value=-0.00012074 0.00885919 0.0161844 0.0212826 -0.0431063 0.0296542 0.0260785 0.0307249 0.0240822 0.00739031 0.00969673 -0.023076 -0.00863582 0.0130106 -0.0193283 0.0341757 -0.00536474 0.006591 0.010719 0.00169655 -0.00890996 0.00142482 -0.0283519 0.0306938 0.0191076 0.0474348 -0.0340603 -0.000300906 0.00452067 0.00935433
internal_weight=9063.15 7496.98 5950.57 4936.58 1566.16 3080.34 2720.02 2336.45 1671.84 1856.24 689.357 665.684 1013.99 1452.03 1546.41 982.481 323.316 1065.29 902.155 445.953 717.742 659.962 828.67 386.737 205.393 664.611 571.43 639.489 481.773 387.471
internal_count=45843 36347 27963 22720 9496 13742 12266 10348 7562 8978 3290 3684 5243 6857 8384 4272 1648 5129 4304 2196 3704 3255 4680 1728 959 2786 3305 3171 2390 1922
is_linear=0
shrinkage=0.05


Tree=9
num_leaves=31
num_cat=0
split_feature=0 0 5 0 0 2 0 0 0 0 0 0 3 0 2 3 2 0 0 2 2 0 2 3 0 0 0 0 0 0
split_gain=1292.74 559.612 270.055 204.645 181.824 106.129 92.542 103.111 76.1114 75.931 74.0982 73.5402 70.3903 61.7556 59.8593 54.2508 41.7758 40.7014 61.6332 30.4153 28.8466 27.093 25.876 24.4505 22.8039 22.4753 36.3479 29.1411 55.3759 43.9805
threshold=42.500000000000007 65.500000000000014 1.0000000180025095e-35 52.500000000000007 38.000000000000007 22.050000000000004 62.500000000000007 61.500000000000007 58.500000000000007 51.500000000000007 41.500000000000007 56.500000000000007 1.5000000000000002 57.500000000000007 26.350000000000005 1.5000000000000002 23.950000000000003 47.500000000000007 46.500000000000007 29.750000000000004 22.750000000000004 69.500000000000014 22.250000000000004 1.5000000000000002 78.500000000000014 52.500000000000007 56.500000000000007 51.500000000000007 48.500000000000007 46.500000000000007
decision_type=2 2 2 2 2 2 2 2 2 2 2 2 2 2 2 2 2 2 2 2 2 2 2 2 2 2 2 2 2 2
left_child=4 2 3 9 -1 -5 7 8 11 14 16 19 -4 23 22 24 -6 18 -16 -7 -9 -17 -2 -13 -3 27 -27 28 29 -14
right_child=1 15 12 5 10 6 -8 20 -10 -11 -12 13 25 -15 17 21 -18 -19 -20 -21 -22 -23 -24 -25 -26 26 -28 -29 -30 -31
leaf_value=-0.057101231470341199 -0.015544022237451424 -0.032323686177657719 -0.026419533161738062 -0.0014553520021544284 -0.030515669285360331 0.028421815344227483 0.055483949067752884 0.12114968804347009 0.046410232462457152 -0.012237545119716902 -0.038716041734032147 0.010836543394274152 0.023872372729897479 0.034106148469160769 0.0288617273887294 -0.023007825111361898 0.0076465538639980818 0.034449185421221273 -0.011648305212154002 0.048059720492428376 8.9817414933840648e-05 -0.0019685530278552026 0.0071635144338419738 -0.014274610771927732 -0.013250313581149031 0.042611301466008576 0.0020983748118452573 -0.032362513304051599 0.044294103613378016 -0.035431765813438473
leaf_weight=868.44147145748138 161.92326848208904 604.10235008597374 348.8207246363163 278.43856519460678 107.76092098653316 622.73522785305977 337.09325686097145 4.9946743994951239 618.11574088037014 401.68867573142052 334.57033950090408 242.69705736637115 47.651205033063889 212.42092347145081 212.32917179167271 221.98530626296997 214.37655353546143 357.04472544789314 168.32648155093193 288.52208116650581 332.64531500637531 492.49265573918819 557.08488193154335 161.40797288715839 211.60003787279129 67.551358282566071 306.88411474227905 92.116013765335083 54.917653650045395 90.901602923870087
leaf_count=5812 825 3551 1988 1285 591 2719 1370 25 2562 2121 2036 1198 236 905 933 1199 1057 1545 877 1187 1665 2505 2677 826 1129 322 1504 471 272 450
internal_value=-0.000126621 0.00841049 0.0153288 0.0201276 -0.0420886 0.0279943 0.0309014 0.0275648 0.031606 0.00700896 -0.0222358 0.0256164 -0.00825214 0.0122798 0.0123162 -0.0185648 -0.00511941 0.0223226 0.0109481 0.0346396 0.00188064 -0.00850537 0.00204969 0.000806625 -0.0273759 0.00134931 0.00940725 -0.00921554 0.0018053 -0.0150358
internal_weight=9021.64 7496.49 5966.31 4957.47 1525.15 3099.07 2820.63 2483.54 2145.9 1858.4 656.708 1527.78 1008.84 616.526 1456.71 1530.18 322.137 737.7 380.656 911.257 337.64 714.478 719.008 404.105 815.702 660.022 374.435 285.586 193.47 138.553
internal_count=45843 36347 27963 22720 9496 13742 12457 11087 9397 8978 3684 6835 5243 2929 6857 8384 1648 3355 1810 3906 1690 3704 3502 2024 4680 3255 1826 1429 958 686
is_linear=0
shrinkage=0.05


Tree=10
num_leaves=31
num_cat=0
split_feature=0 0 5 0 0 0 0 0 0 0 0 0 3 2 3 2 2 0 0 0 4 0 3 2 2 0 0 0 2 2
split_gain=1194.43 505.87 242.388 182.711 178.072 95.8077 115.395 82.939 77.3176 69.5993 68.4437 67.1982 64.7032 55.1529 50.5577 38.8846 36.9645 32.4155 28.6606 25.9337 23.0486 21.9442 19.7585 19.6726 19.5519 18.9233 18.3424 36.1476 18.3099 17.9691
threshold=42.500000000000007 65.500000000000014 1.0000000180025095e-35 52.500000000000007 38.000000000000007 62.500000000000007 61.500000000000007 58.500000000000007 56.500000000000007 41.500000000000007 51.500000000000007 57.500000000000007 1.5000000000000002 30.050000000000004 1.5000000000000002 28.850000000000005 25.950000000000003 47.500000000000007 46.500000000000007 78.500000000000014 1.0000000180025095e-35 62.500000000000007 1.5000000000000002 29.050000000000004 20.650000000000002 78.500000000000014 47.500000000000007 46.500000000000007 30.850000000000005 22.050000000000004
decision_type=2 2 2 2 2 2 2 2 2 2 2 2 2 2 2 2 2 2 2 2 2 2 2 2 2 2 2 2 2 2
left_child=4 2 3 10 -1 6 7 8 16 15 13 -10 -4 17 20 -6 -5 18 24 -16 -3 -14 -19 -9 -2 -22 27 -15 -29 -8
right_child=1 14 12 5 9 -7 29 23 11 -11 -12 -13 21 26 19 -17 -18 22 -20 -21 25 -23 -24 -25 -26 -27 -28 28 -30 -31
leaf_value=-0.056327421000904335 -0.042105679203810684 -0.013884689436387841 -0.025475909685826345 0.019341051827007284 -0.015630353037397699 0.050510277334273525 -0.031680367559318696 0.03562317826788914 -0.002654723226777009 -0.037654988729898614 -0.011698120272038934 0.030129833850766903 -0.00036395703438539496 0.035961640982941127 -0.012981910219396481 0.023285829550235993 0.038763580191769793 0.0078538586652804731 -0.017067080277792839 0.01061544701117988 -0.037335165346252606 0.052012886644113722 0.028399581859923546 0.053277104053408623 0.0096784919782658234 -0.015624339954083025 0.039190876639538769 0.09511592446242538 -0.011200063541581005 0.0017827685134399942
leaf_weight=837.14776885509491 19.40104067325592 251.76837541162968 343.78445157408714 431.52129779756069 232.4362741112709 365.27068102359772 45.521712899208069 424.57581639289856 454.30705243349075 326.9928994178772 399.26419673860073 238.27692732214928 639.51558555662632 116.0683626383543 564.7524491995573 88.677287101745605 566.65471239387989 362.117062240839 214.34303756058216 146.67243152856827 419.61891859769821 20.643239915370941 172.8847558349371 251.1513991355896 301.42054200172424 131.91802716255188 184.47989417612553 4.249456822872161 86.177879571914673 337.91635490953922
leaf_count=5812 100 1375 1988 1895 1248 1476 228 1766 2281 2036 2121 1009 3171 489 2988 400 2377 1698 1125 716 2596 84 779 1020 1427 709 769 21 449 1690
internal_value=-0.000131623 0.00798656 0.0145248 0.0190467 -0.0410943 0.0264511 0.0232553 0.0273782 0.0214607 -0.0214179 0.0066482 0.00862449 -0.00788617 0.0116614 -0.0178236 -0.00488343 0.030367 0.00578981 -0.00291089 -0.00811691 -0.0264201 0.00127387 0.0144932 0.0421847 0.00654695 -0.0321423 0.027733 0.0174967 -0.00620395 -0.00218997
internal_weight=8979.53 7494.28 5979.55 4975.6 1485.25 3115.2 2749.93 2366.49 1690.76 648.106 1860.41 692.584 1003.94 1461.14 1514.73 321.114 998.176 1070.17 535.165 711.425 803.305 660.159 535.002 675.727 320.822 551.537 390.976 206.496 90.4273 383.438
internal_count=45843 36347 27963 22720 9496 13742 12266 10348 7562 3684 8978 3290 5243 6857 8384 1648 4272 5129 2652 3704 4680 3255 2477 2786 1527 3305 1728 959 470 1918
is_linear=0
shrinkage=0.05


Tree=11
num_leaves=31
num_cat=0
split_feature=0 0 5 0 0 2 0 4 0 3 2 0 3 0 0 0 2 0 0 0 2 0 0 0 0 0 4 2 0 0
split_gain=1103.94 457.537 217.689 174.389 163.41 90.78 65.3225 62.7649 61.7196 59.4827 51.457 49.8217 47.1144 42.6123 46.1214 47.7385 36.9211 34.5013 30.7153 52.6887 40.2101 29.3544 46.7161 28.0121 44.5321 24.242 21.7854 21.6573 19.9717 32.3933
threshold=42.500000000000007 65.500000000000014 1.0000000180025095e-35 38.000000000000007 52.500000000000007 29.050000000000004 41.500000000000007 1.0000000180025095e-35 51.500000000000007 1.5000000000000002 24.150000000000002 62.500000000000007 1.5000000000000002 61.500000000000007 58.500000000000007 56.500000000000007 23.950000000000003 57.500000000000007 62.500000000000007 61.500000000000007 29.950000000000003 57.500000000000007 56.500000000000007 47.500000000000007 46.500000000000007 69.500000000000014 1.0000000180025095e-35 29.750000000000004 52.500000000000007 56.500000000000007
decision_type=2 2 2 2 2 2 2 2 2 2 2 2 2 2 2 2 2 2 2 2 2 2 2 2 2 2 2 2 2 2
left_child=3 2 4 -1 8 7 16 -6 10 -4 -2 13 26 14 15 -9 -5 -17 19 21 -21 22 -7 24 -12 -14 -3 -24 -11 -30
right_child=1 12 9 6 5 18 -8 11 -10 28 23 -13 25 -15 -16 17 -18 -19 -20 20 -22 -23 27 -25 -26 -27 -28 -29 29 -31
leaf_value=-0.055588220910168407 -0.0041773869410917123 -0.013288482844882363 -0.024558660892451817 -0.02893335079216457 0.037079140654988733 0.041221193848652887 -0.036616792660943982 0.01853685954374196 -0.011180017486681106 -0.0087907038944565474 0.020971318891345056 0.039388158773906258 -0.021622690144648519 -0.0091714302503867456 0.03050127379637755 -0.016294590806055786 0.0072246050626399803 0.015765102262759401 0.058062445195796356 0.11516376046002488 -0.0033922424182997405 0.049429344361527856 0.091653721171386829 0.025063746385370785 -0.0081658729678865238 -0.0015809684602140156 -0.031135816229424303 0.0055407049355391405 0.039816107907975809 0.001832812173160058
leaf_weight=806.64044463634491 402.47639694809914 249.95835945010185 338.91944620013237 105.16417573392391 376.89205341041088 335.63385860621929 319.64005720615387 533.25965347886086 396.939337849617 284.2690317183733 314.51211996376514 178.42644467949867 217.90118692815304 214.72584570944309 344.62609404325485 236.22713983058929 214.808533847332 130.15496371686459 143.4774551987648 7.598274201154708 121.77234180271626 331.44003908336163 7.6359726041555396 522.81457911431789 224.91043169796467 490.57307730615139 541.1897204220295 166.64590084552765 68.679754018783569 307.23463514447212
leaf_count=5812 2016 1375 1988 591 1651 1371 2036 2312 2121 1429 1391 718 1199 1076 1424 1210 1057 551 577 38 609 1347 36 2264 1186 2505 3305 822 322 1504
internal_value=-0.000135235 0.00758809 0.0137722 -0.0401277 0.0180375 0.0250171 -0.0206297 0.0186826 0.00630824 -0.00753143 0.0110476 0.0144482 -0.0171104 0.0113982 0.0149479 0.00898985 -0.00465929 -0.00490558 0.036469 0.0332774 0.00357086 0.0378452 0.0303157 0.0168162 0.00882266 -0.00774508 -0.0254971 0.00931365 0.00120987 0.00877238
internal_weight=8935.15 7488.89 5989.27 1446.25 4990.17 3128.52 639.613 2014.31 1861.65 999.103 1464.71 1637.42 1499.62 1458.99 1244.27 899.642 319.973 366.382 1114.2 970.726 129.371 841.356 509.916 1062.24 539.423 708.474 791.148 174.282 660.183 375.914
internal_count=45843 36347 27963 9496 22720 13742 3684 8942 8978 5243 6857 7291 8384 6573 5497 4073 1648 1761 4800 4223 647 3576 2229 4841 2577 3704 4680 858 3255 1826
is_linear=0
shrinkage=0.05


Tree=12
num_leaves=31
num_cat=0
split_feature=0 0 0 5 0 0 0 0 2 0 0 0 0 0 0 2 3 0 2 0 2 5 2 3 2 2 5 0 3 0
split_gain=1020.48 336.848 328.938 122.604 95.3767 108.43 94.3004 118.083 86.4991 67.5761 74.0382 67.2866 61.2922 54.3277 51.5046 48.0397 43.8448 43.5753 41.7513 41.4248 33.8248 29.0853 27.5188 25.8755 25.6296 24.5679 24.0626 22.8263 21.8266 20.8681
threshold=38.000000000000007 65.500000000000014 52.500000000000007 1.0000000180025095e-35 42.500000000000007 51.500000000000007 47.500000000000007 46.500000000000007 22.050000000000004 62.500000000000007 61.500000000000007 56.500000000000007 41.500000000000007 58.500000000000007 56.500000000000007 27.450000000000003 1.5000000000000002 57.500000000000007 25.550000000000004 62.500000000000007 23.950000000000003 1.0000000180025095e-35 26.450000000000003 1.5000000000000002 34.050000000000004 22.750000000000004 1.0000000180025095e-35 78.500000000000014 1.5000000000000002 78.500000000000014
decision_type=2 2 2 2 2 2 2 2 2 2 2 2 2 2 2 2 2 2 2 2 2 2 2 2 2 2 2 2 2 2
left_child=-1 2 4 8 12 6 7 18 -4 10 13 22 20 14 24 -8 29 28 -6 23 -2 -9 -5 -13 -10 -12 -7 -18 -16 -3
right_child=1 16 3 11 5 26 15 21 9 -11 25 19 -14 -15 17 -17 27 -19 -20 -21 -22 -23 -24 -25 -26 -27 -28 -29 -30 -31
leaf_value=-0.05487993231983599 -0.027932542385401889 -0.029494243862718525 -0.0028548385952667601 0.011685351362765144 -0.0019183955320351978 -0.010682550152532843 0.010363936423937127 -0.012935501494594333 0.026194791632981447 0.04714010108959818 0.10883794126300853 -0.025386086141016506 -0.03559991876469118 0.039203026204961793 0.010336986264956919 0.035204065628650943 -0.012006814336282158 0.028703742303015541 0.027285023367410413 0.056809231322961277 0.0068422013797852484 -0.04093218289989875 0.071308206745219899 -0.0016847763608545457 0.051917355476000009 -1.9003653805219336e-05 -0.03392376395399848 0.01012408129090449 -0.013438918952592863 -0.010940937616368119
leaf_weight=776.95223569869995 103.5278943926096 573.60091492533684 279.80978618562222 38.009628519415855 222.36353854835033 394.71119137108326 460.28289391100407 301.62627920508385 820.04548422992229 341.64346317946911 5.2651325166225424 192.45943433046341 312.5150591135025 629.78448034822941 243.56071957945824 337.25540815293789 558.41517239809036 216.89961884915829 272.21822075545788 23.484663635492325 215.45616726577282 133.97370731830597 39.427498653531075 286.69526714086533 109.80674386024475 332.93630191683769 155.14351698756218 147.23418790102005 159.89887741208076 205.98380063474178
leaf_count=5812 591 3551 1285 179 1091 2121 2157 1595 3462 1370 25 1146 2036 2562 1198 1445 2988 905 1199 98 1057 724 189 1420 444 1665 857 716 826 1129
internal_value=-0.000138246 0.0051035 0.00992573 0.0197756 -0.00266896 0.00209824 0.00825277 -0.00256361 0.0236774 0.0262734 0.0234424 -0.00134293 -0.0198624 0.0268193 0.0217883 0.0208681 -0.0164188 0.0106304 0.0141552 -0.00802695 -0.00444412 -0.0215462 0.0420426 -0.0112048 0.0292324 0.00167569 -0.0172401 -0.00738919 0.000914133 -0.024592
internal_weight=8890.99 8114.04 6628.8 3719.73 2909.07 2277.57 1727.72 930.182 3139.65 2859.84 2518.2 580.076 631.499 2180 1550.21 797.538 1485.23 620.359 494.582 502.639 318.984 435.6 77.4371 479.155 929.852 338.201 549.855 705.649 403.46 779.585
internal_count=45843 40031 31647 16774 14873 11189 8211 4609 13742 12457 11087 3032 3684 9397 6835 3602 8384 2929 2290 2664 1648 2319 368 2566 3906 1690 2978 3704 2024 4680
is_linear=0
shrinkage=0.05


Tree=13
num_leaves=31
num_cat=0
split_feature=0 0 0 5 0 0 0 0 2 0 0 0 0 0 0 2 3 2 0 2 0 2 5 3 2 5 0 2 4 3
split_gain=955.266 305.35 295.723 109.876 87.2476 98.3469 84.4702 107.254 79.8438 59.9562 59.3302 65.4742 57.476 45.8748 43.8156 42.7696 40.7732 38.0303 38.0123 37.2489 37.2421 32.239 27.3176 23.8959 23.6467 22.4655 21.6649 21.302 20.8256 20.4998
threshold=38.000000000000007 65.500000000000014 52.500000000000007 1.0000000180025095e-35 42.500000000000007 51.500000000000007 47.500000000000007 46.500000000000007 23.050000000000004 56.500000000000007 62.500000000000007 61.500000000000007 41.500000000000007 58.500000000000007 56.500000000000007 27.450000000000003 1.5000000000000002 23.950000000000003 57.500000000000007 25.550000000000004 62.500000000000007 28.850000000000005 1.0000000180025095e-35 1.5000000000000002 26.450000000000003 1.0000000180025095e-35 69.500000000000014 34.050000000000004 1.0000000180025095e-35 1.5000000000000002
decision_type=2 2 2 2 2 2 2 2 2 2 2 2 2 2 2 2 2 2 2 2 2 2 2 2 2 2 2 2 2 2
left_child=-1 2 4 8 12 6 7 19 -4 24 11 13 21 14 27 -8 28 -13 29 -6 23 -2 -9 -11 -5 -7 -18 -10 -3 -16
right_child=1 16 3 9 5 25 15 22 10 20 -12 17 -14 -15 18 -17 26 -19 -20 -21 -22 -23 -24 -25 -26 -27 -28 -29 -30 -31
leaf_value=-0.054199168432148982 -0.014222797698834101 -0.011684150548006596 0.003188179124709695 0.01105082370866726 -0.001824001936133429 -0.010205045424683956 0.0098070522884272492 -0.012369843715707275 0.025575755397210582 -0.024482106589949443 0.045799394106160629 0.082751832717434776 -0.034603077857850072 0.037929732703952168 0.011021560956559666 0.033172581308962543 -0.02031395100372731 -0.0020790773405667149 0.028289118018705896 0.02571902239772805 0.053550591436767284 0.021145796522107716 -0.039726183230648769 -0.0016017535931831227 0.065896171252908892 -0.03282358997687853 -0.0012400212352611175 0.049083085895859968 -0.02934516540324544 -0.01263034613285215
leaf_weight=748.10773801803589 228.24010384082794 245.09519681334496 460.66536596417427 38.178037583827972 222.18230557441711 392.57681800425053 462.05182440578938 299.69867226481438 762.01813164353371 189.66008001565933 323.52355852723122 13.822236284613608 305.61957377195358 594.13285765051842 228.8728232383728 339.94143103063107 214.06171347200871 299.14883241057396 204.03980343043804 274.29811172187328 23.66317281126976 89.771008491516113 131.20990107953548 286.48342898488045 40.503033176064491 152.39729982614517 488.85823306441307 110.32572519779205 523.3218536823988 152.75971058011055
leaf_count=5812 1248 1375 2082 179 1091 2121 2157 1595 3194 1146 1295 69 2036 2404 1118 1445 1199 1496 846 1199 98 400 724 1420 189 857 2505 444 3305 794
internal_value=-0.000141051 0.00485348 0.009429 0.0187426 -0.00255142 0.00199148 0.00782813 -0.00244803 0.0224216 -0.00128626 0.025717 0.02297 -0.0191192 0.0262188 0.0214466 0.019711 -0.0157512 0.00166744 0.0108683 0.0133931 -0.00767292 -0.00423864 -0.0206997 -0.0107156 0.0392838 -0.0165301 -0.00704865 0.0285487 -0.023712 0.00155419
internal_weight=8845.23 8097.12 6625.78 3727.8 2897.99 2274.36 1729.38 927.389 3149.31 578.488 2688.64 2365.12 623.631 2052.15 1458.02 801.993 1471.34 312.971 585.672 496.48 499.807 318.011 430.909 476.144 78.6811 544.974 702.92 872.344 768.417 381.633
internal_count=45843 40031 31647 16774 14873 11189 8211 4609 13742 3032 11660 10365 3684 8800 6396 3602 8384 1565 2758 2290 2664 1648 2319 2566 368 2978 3704 3638 4680 1912
is_linear=0
shrinkage=0.05


Tree=14
num_leaves=31
num_cat=0
split_feature=0 0 0 0 0 0 0 0 0 0 0 0 5 2 2 2 0 2 2 5 2 2 2 5 3 0 5 5 0 3
split_gain=894.599 276.821 266.009 99.506 169.948 108.729 182.581 79.805 89.2035 75.718 97.4219 53.8509 40.1889 39.0731 37.6929 33.2687 32.0605 29.857 28.3432 25.6536 25.5684 34.5023 26.1382 24.567 22.7372 21.1614 20.9653 19.2277 18.2751 17.6664
threshold=38.000000000000007 65.500000000000014 52.500000000000007 62.500000000000007 61.500000000000007 57.500000000000007 56.500000000000007 42.500000000000007 51.500000000000007 47.500000000000007 46.500000000000007 41.500000000000007 1.0000000180025095e-35 31.250000000000004 26.350000000000005 25.550000000000004 78.500000000000014 23.950000000000003 32.750000000000007 1.0000000180025095e-35 24.050000000000004 24.850000000000005 25.050000000000004 1.0000000180025095e-35 1.5000000000000002 60.500000000000007 1.0000000180025095e-35 1.0000000180025095e-35 40.500000000000007 1.5000000000000002
decision_type=2 2 2 2 2 2 2 2 2 2 2 2 2 2 2 2 2 2 2 2 2 2 2 2 2 2 2 2 2 2
left_child=-1 2 7 4 5 6 14 11 9 10 15 17 16 24 -4 -9 -3 -2 25 -12 -8 -22 -23 -15 -11 -7 -10 -6 -19 -14
right_child=1 12 3 -5 27 18 20 8 26 13 19 -13 29 23 -16 -17 -18 28 -20 -21 21 22 -24 -25 -26 -27 -28 -29 -30 -31
leaf_value=-0.053542884165322414 -0.026460358263440394 -0.028721375088385771 0.01535226068622926 0.041583650450979337 -0.0022372001496120497 0.025570961523205461 -0.026082103488058447 -0.0017341830432069081 -0.0097468607494664572 0.0060211607575372042 -0.011826233629238523 -0.033625177299260581 -0.015361150742707172 0.035072725700191654 0.033894269395165322 0.024261444094838172 -0.0049897960175678251 -0.0051972388272980138 0.052164075432108707 -0.038554362958324699 0.066418239989648131 -0.042307782225078701 -0.001574992678422542 0.10605530441498599 0.025330524593691381 0.045357829810897678 -0.031752908976812377 -0.020742939103310057 0.024619584564900779 0.00080286986183966962
leaf_weight=720.12388297915459 101.13634259998798 583.57688093185425 518.76844815909863 392.59579002857208 383.48495908081532 652.65885396301746 154.6440477669239 222.00982962548733 390.53321523964405 407.07629552483559 297.8493657708168 298.9539652466774 301.63170050084591 141.87496554851532 581.10748541355133 276.18812191486359 188.21791477501392 131.41575148701668 168.70813979208469 128.50753407180309 17.38229838013649 43.357602149248123 429.81656238436699 13.335321024060248 243.73781445622444 170.4022516310215 149.72813031077385 221.40151365101337 84.390340268611908 384.54542084038258
leaf_count=5812 591 3495 2240 1574 1918 2709 815 1091 2121 1865 1595 2036 1858 577 2400 1199 1008 645 687 724 88 227 2198 66 1094 700 857 1218 412 2023
internal_value=-0.000143081 0.0046167 0.00895981 0.0177713 0.0149738 0.0202748 0.0127617 -0.00243893 0.00189061 0.0074276 -0.00233761 -0.0184022 -0.0151066 0.0186288 0.0251487 0.0126771 -0.0229339 -0.00404316 0.0334944 -0.0198823 -0.0083544 -0.00276588 -0.00530739 0.0411714 0.0132528 0.0296675 -0.0158456 -0.0090107 0.00646254 -0.00630256
internal_weight=8799.16 8079.04 6621.06 3734.33 3341.73 2736.85 1745.08 2886.74 2270.84 1730.58 924.555 615.896 1457.97 806.024 1099.88 498.198 771.795 316.942 991.769 426.357 645.201 490.556 473.174 155.21 650.814 823.061 540.261 604.886 215.806 686.177
internal_count=45843 40031 31647 16774 15200 12064 7968 14873 11189 8211 4609 3684 8384 3602 4640 2290 4503 1648 4096 2319 3328 2513 2425 643 2959 3409 2978 3136 1057 3881
is_linear=0
shrinkage=0.05


Tree=15
num_leaves=31
num_cat=0
split_feature=0 0 0 2 0 0 0 0 0 0 0 0 0 5 2 0 2 2 2 5 5 2 2 5 5 2 3 3 2 5
split_gain=838.093 250.962 239.565 93.4279 74.4904 133.356 75.116 134.322 72.9711 80.8994 67.8791 88.4929 50.4251 37.2178 35.7859 29.9274 29.8149 29.7432 27.8535 27.0079 24.0851 23.6718 21.2136 19.5558 18.8949 18.3647 17.3111 16.1476 20.9114 16.0925
threshold=38.000000000000007 65.500000000000014 52.500000000000007 22.050000000000004 62.500000000000007 61.500000000000007 57.500000000000007 56.500000000000007 42.500000000000007 51.500000000000007 47.500000000000007 46.500000000000007 41.500000000000007 1.0000000180025095e-35 27.450000000000003 78.500000000000014 22.950000000000003 25.550000000000004 27.250000000000004 1.0000000180025095e-35 1.0000000180025095e-35 29.750000000000004 29.050000000000004 1.0000000180025095e-35 1.0000000180025095e-35 22.450000000000003 1.5000000000000002 1.5000000000000002 40.95000000000001 1.0000000180025095e-35
decision_type=2 2 2 2 2 2 2 2 2 2 2 2 2 2 2 2 2 2 2 2 2 2 2 2 2 2 2 2 2 2
left_child=-1 2 8 -4 5 6 7 21 12 10 11 17 18 15 -12 -3 -7 -10 -2 22 -13 -5 -8 -11 -18 -9 -20 28 -15 -16
right_child=1 13 3 4 -6 16 19 25 9 23 14 20 -14 27 29 -17 24 -19 26 -21 -22 -23 -24 -25 -26 -27 -28 -29 -30 -31
leaf_value=-0.05290830337569713 -0.015751996654658769 -0.02774864858095329 -0.0075329481304927991 0.020827937625876477 0.040764642252846428 0.086984001876350109 0.024622391003610751 0.11295124076948376 -0.0016487261456978629 -0.0093073494749356771 0.0085759534573470551 -0.01130397637379027 -0.032665327610706035 -0.017115249900582934 0.026365414382270209 -0.004752410308909715 -0.00036367329847578631 0.022902097695250888 0.0005584621252185749 0.067237409342296967 -0.037414094775945414 0.037305769653222985 0.040744840436674715 -0.030710283946120898 -0.020248086152632416 -0.0051075094927979063 0.039492566664005233 0.00076242287697436087 0.058567269270329049 0.063510685080005125
leaf_weight=693.0112364590168 192.44136087596416 574.07817833125591 355.12029200792313 697.70879177749157 364.86052557826042 8.4760033488273603 520.61467669904232 3.3134119659662238 221.84568917751312 388.57741217315197 465.8490656465292 296.07617630064487 292.51744472980499 289.49225781857967 311.89337965846062 187.75083351135254 330.25622142851353 277.9063278734684 78.77556699514389 54.513883650302887 125.87073044478893 316.97785484790802 335.52004480361938 147.13781745731831 187.18436443805695 563.20037643611431 44.778478190302849 384.69483698904514 9.4241985231637937 32.164942711591721
leaf_count=5812 1086 3495 1699 2950 1462 40 2120 17 1091 2121 2157 1595 2036 1801 1291 1008 1652 1199 357 268 724 1283 1347 857 1035 2901 205 2023 57 154
internal_value=-0.000144926 0.0043923 0.00851722 0.0168644 0.0194257 0.0168458 0.0216745 0.0150864 -0.00233169 0.00179443 0.00704768 -0.00223208 -0.0177056 -0.0144812 0.0176083 -0.0220813 -0.00603319 0.0120037 -0.00385742 0.0331136 -0.0190929 0.0259754 0.0309408 -0.0151858 -0.00755687 -0.00441701 0.014669 -0.00601143 -0.0147291 0.029838
internal_weight=8752.03 8059.02 6613.58 3737.75 3382.63 3017.77 2491.85 1581.2 2875.83 2267.32 1731.61 921.699 608.513 1445.44 809.907 761.829 525.917 499.752 315.995 910.649 421.947 1014.69 856.135 535.715 517.441 566.514 123.554 683.611 298.916 344.058
internal_count=45843 40031 31647 16774 15075 13613 10886 7151 14873 11189 8211 4609 3684 8384 3602 4503 2727 2290 1648 3735 2319 4233 3467 2978 2687 2918 562 3881 1858 1445
is_linear=0
shrinkage=0.05


Tree=16
num_leaves=31
num_cat=0
split_feature=0 0 0 2 2 0 0 0 0 0 0 0 0 0 3 2 2 5 2 2 2 2 2 2 4 2 0 5 5 2
split_gain=785.416 227.525 215.768 84.088 69.1858 67.5449 119.787 67.2511 120.492 42.4382 67.2837 54.5777 40.5585 62.0277 35.349 33.8037 26.1601 22.5892 22.2302 30.9352 21.6403 21.5844 21.4771 25.1181 19.7627 19.3315 19.0516 18.1951 17.3127 17.03
threshold=38.000000000000007 65.500000000000014 52.500000000000007 22.050000000000004 24.050000000000004 62.500000000000007 61.500000000000007 57.500000000000007 56.500000000000007 42.500000000000007 51.500000000000007 41.500000000000007 47.500000000000007 46.500000000000007 1.5000000000000002 24.950000000000003 22.950000000000003 1.0000000180025095e-35 25.050000000000004 25.850000000000005 31.250000000000004 33.250000000000007 21.050000000000004 23.950000000000003 1.0000000180025095e-35 28.550000000000004 69.500000000000014 1.0000000180025095e-35 1.0000000180025095e-35 24.950000000000003
decision_type=2 2 2 2 2 2 2 2 2 2 2 2 2 2 2 2 2 2 2 2 2 2 2 2 2 2 2 2 2 2
left_child=-1 2 4 -4 22 6 7 8 21 11 12 -6 13 -11 24 -12 -8 25 -17 -20 -14 -5 -2 -24 -3 -9 -16 -22 -18 -15
right_child=1 14 3 5 9 -7 16 17 -10 10 15 -13 20 29 26 18 28 -19 19 -21 27 -23 23 -25 -26 -27 -28 -29 -30 -31
leaf_value=-0.052292884271014639 -0.029162307136297885 -0.0096408754982051006 -0.0071762443957385028 0.021659714512440045 0.0058078879608859371 0.038760380388325091 0.07997340721512973 0.02285867088586542 -0.0042059719330980348 0.017256945646454355 0.052281457894232275 -0.030600328209735392 0.015518289022619923 0.041876130497204025 -0.018400523673410479 -0.053496336990683548 -0.0003455477257463843 0.062093758734303423 0.063925821763781421 -0.014401209830984821 0.031767982253802431 0.042728167649179909 -0.0060628211804823482 -0.036477627304109611 -0.027113051047945015 0.038034746875235788 -0.00032295467354734358 0.091010281946255364 -0.019443652975326523 -0.015686522770215382
leaf_weight=666.7747782766819 196.5300470739603 238.95888760685921 354.15862540900707 877.53129588067532 212.76379220187664 364.54764902591705 8.7505203634500486 492.26470540463924 565.34861661493778 365.4218624830246 19.487253755331039 199.40331295132637 438.85731077194214 13.43354372680187 208.4617984443903 34.515952318906784 330.2024872303009 56.036662444472313 13.110687613487242 327.33169385790825 142.86485843360424 141.11551767587662 513.37338273227215 78.225905850529671 501.49926847219467 365.74779100716114 484.4296592772007 14.253919228911398 185.23299099504948 295.35209061205387
leaf_count=5812 1117 1375 1699 3663 1038 1462 40 2000 2918 1601 107 1418 1909 73 1199 195 1652 268 72 1835 577 570 2775 451 3305 1467 2505 66 1035 1639
internal_value=-0.000146037 0.00417904 0.00809726 0.0160052 -0.00222875 0.0184293 0.015977 0.0205369 0.0143049 0.00255781 0.00611436 -0.0118061 0.0117161 0.00331584 -0.0138788 -0.0119244 -0.00575349 0.0313366 -0.0152613 -0.0113848 0.0212191 0.0245784 -0.0148418 -0.0100845 -0.0214745 0.0293278 -0.00576173 0.0371425 -0.00720887 -0.0131823
internal_weight=8705.99 8039.21 6605.86 3740.94 2864.93 3386.78 3022.23 2498.04 1584 2076.8 1664.63 412.167 1270.18 674.207 1433.35 394.446 524.186 914.049 374.958 340.442 595.976 1018.65 788.129 591.599 740.458 858.012 692.891 157.119 515.435 308.786
internal_count=45843 40031 31647 16774 14873 15075 13613 10886 7151 10530 8074 2456 5865 3313 8384 2209 2727 3735 2102 1907 2552 4233 4343 3226 4680 3467 3704 643 2687 1712
is_linear=0
shrinkage=0.05


Tree=17
num_leaves=31
num_cat=0
split_feature=0 0 0 2 2 0 0 0 0 0 0 0 0 0 5 2 0 2 2 2 0 2 0 0 2 2 5 5 3 5
split_gain=736.267 206.272 194.45 75.7238 62.9185 61.33 107.663 60.327 108.135 38.4885 60.7739 50.5031 36.2825 55.9404 34.0285 30.104 28.0823 23.4731 20.9934 27.3545 20.5616 20.3601 20.1557 22.8267 19.368 18.8537 16.9747 16.5849 17.831 16.4261
threshold=38.000000000000007 65.500000000000014 52.500000000000007 22.050000000000004 24.050000000000004 62.500000000000007 61.500000000000007 57.500000000000007 56.500000000000007 42.500000000000007 51.500000000000007 41.500000000000007 47.500000000000007 46.500000000000007 1.0000000180025095e-35 24.950000000000003 78.500000000000014 22.750000000000004 25.050000000000004 25.850000000000005 60.500000000000007 29.750000000000004 47.500000000000007 51.500000000000007 31.250000000000004 34.550000000000004 1.0000000180025095e-35 1.0000000180025095e-35 1.5000000000000002 1.0000000180025095e-35
decision_type=2 2 2 2 2 2 2 2 2 2 2 2 2 2 2 2 2 2 2 2 2 2 2 2 2 2 2 2 2 2
left_child=-1 2 4 -4 22 6 7 8 21 11 12 -6 13 -11 16 -12 -3 -8 -17 -20 25 -5 -2 -24 -14 -9 -15 28 -10 -19
right_child=1 14 3 5 9 -7 17 20 27 10 15 -13 24 26 -16 18 -18 29 19 -21 -22 -23 23 -25 -26 -27 -28 -29 -30 -31
leaf_value=-0.051694296400090267 -0.021476928320213935 -0.026266303225555211 -0.0068356782721577837 0.018522022097979828 0.005504229403005806 0.036882083079221736 0.091187208886492274 0.02272994622395675 0.0099061936747405974 0.016316363734667643 0.04832239206502268 -0.029684346455247368 0.014680349289138748 -0.0051000706981008245 -0.0051803929431662723 -0.052369016560017592 -0.0038315558748541765 -2.9512875599607307e-05 0.058732499985557768 -0.01378980602409721 0.043756051202825635 0.033763355773215868 0.0047353555196965776 -0.021430288821760471 0.035085953253604842 0.047939568658421687 -0.031030891322943767 -0.017450714125916266 -0.011695697664664675 -0.018665845309397737
leaf_weight=641.41459503769875 430.03774812817574 559.26186774671078 353.2374317497015 704.17119868099689 213.263307467103 363.97132053971291 6.2045279741287223 630.55736353993416 244.350148037076 367.11779268085957 20.015346497297287 195.38232427835464 440.66358704864979 217.77451790869236 676.35204949975014 33.521388962864876 185.83504694700241 332.93150487542152 13.544643029570578 324.81808830797672 202.1673321723938 318.09871870279312 216.42070014774799 135.56412985920906 157.97294789552689 84.052045792341232 88.865239009261131 163.04178421199322 156.84821294248104 183.35303391516209
leaf_count=5812 2524 3495 1699 2950 1038 1462 27 2576 1198 1601 107 1418 1909 1189 3881 195 1008 1665 72 1835 820 1283 1050 769 643 339 523 894 826 1035
internal_value=-0.000146528 0.00397641 0.00769845 0.015195 -0.00212984 0.0174907 0.0151582 0.0194671 0.0135667 0.00242921 0.0058052 -0.0113202 0.0111078 0.0031492 -0.0133002 -0.011411 -0.0206708 -0.00548622 -0.0146259 -0.0108867 0.0296779 0.0232647 -0.0142147 -0.00534213 0.0200651 0.0256951 -0.0126149 -0.00400373 0.00146095 -0.00664801
internal_weight=8660.81 8019.4 6597.95 3742.98 2854.96 3389.75 3025.78 2503.29 1586.51 2072.94 1664.29 408.646 1272.39 673.758 1421.45 391.899 745.097 522.489 371.884 338.363 916.777 1022.27 782.023 351.985 598.637 714.609 306.64 564.24 401.198 516.285
internal_count=45843 40031 31647 16774 14873 15075 13613 10886 7151 10530 8074 2456 5865 3313 8384 2209 4503 2727 2102 1907 3735 4233 4343 1819 2552 2915 1712 2918 2024 2700
is_linear=0
shrinkage=0.05


Tree=18
num_leaves=31
num_cat=0
split_feature=0 0 0 2 2 0 0 0 2 2 0 0 4 3 2 2 0 0 2 0 0 2 2 2 2 2 0 5 0 2
split_gain=690.387 186.995 175.36 69.456 58.4831 47.0827 62.7076 42.9743 41.7986 43.7626 39.7611 61.6929 35.8429 32.8715 25.697 40.3799 25.3453 50.3097 37.9639 24.7735 41.0491 30.9379 23.1918 44.4647 43.284 22.8709 21.5678 21.4633 20.8511 20.838
threshold=38.000000000000007 65.500000000000014 52.500000000000007 29.050000000000004 22.050000000000004 42.500000000000007 51.500000000000007 41.500000000000007 22.050000000000004 28.950000000000003 47.500000000000007 46.500000000000007 1.0000000180025095e-35 1.5000000000000002 28.050000000000004 27.950000000000003 62.500000000000007 61.500000000000007 29.950000000000003 57.500000000000007 56.500000000000007 29.750000000000004 27.050000000000004 26.950000000000003 26.050000000000004 25.950000000000003 60.500000000000007 1.0000000180025095e-35 40.500000000000007 31.250000000000004
decision_type=2 2 2 2 2 2 2 2 2 2 2 2 2 2 2 2 2 2 2 2 2 2 2 2 2 2 2 2 2 2
left_child=-1 2 4 8 -2 7 10 28 -4 12 11 -7 27 -3 15 22 17 19 -19 20 -5 -22 23 24 25 -14 -26 -10 -6 -12
right_child=1 13 3 16 5 6 -8 -9 9 -11 29 -13 14 -15 -16 -17 -18 18 -20 -21 21 -23 -24 -25 26 -27 -28 -29 -30 -31
leaf_value=-0.051110410157922705 -0.022067319731088136 -0.020165426852192851 -0.0065105769863436696 0.030442202081636446 -0.010384987881857077 0.013461376957914092 -0.012201874893576742 -0.028761950922738817 0.032043141469802534 -0.025237331666105409 0.012769617951712456 -0.014279542448250868 0.0084953113602043249 -0.004894182459320163 0.032002870319279744 -0.029009664058580516 0.043011302809916545 0.1034215671563396 -0.0056693775395638413 0.036527938749390088 0.095684971709289662 0.00050480204754411778 0.027905722283248537 -0.029877060135008807 0.023628772967686385 -0.019753368478769642 0.065497366898913972 -0.00037636232959719994 0.018178321862058724 0.033217041142906328
leaf_weight=616.92670288681984 322.98125416040421 724.41448111832142 352.35541661083698 367.11835739016533 168.42598728835583 450.63467894494534 462.67628835141659 234.84538033604622 332.5602128058672 75.54585799574852 582.52936612069607 360.94329744577408 926.69803461432457 686.14253130555153 124.78886690735817 68.86464524269104 150.06616444885731 8.3107987195253354 197.40121065080166 352.67298097908497 8.8599558323621732 234.68116250634193 163.52286057174206 73.389500632882118 127.56662982702255 77.65593683719635 40.531840637326241 60.312088489532471 102.94570828974247 158.5036093890667
leaf_count=5812 1857 4680 1699 1483 869 2016 2628 1734 1410 375 2578 2030 4108 3704 523 345 605 40 1045 1425 41 1202 690 367 538 384 172 322 518 643
internal_value=-0.000146329 0.00378482 0.00732263 0.0144344 -0.00203532 0.000530598 0.00395489 -0.0131018 0.00940963 0.0121177 0.00876959 0.00112381 0.0135316 -0.012737 0.0102145 0.00837516 0.023667 0.0211839 -0.00126209 0.0259771 0.0198836 0.00396743 0.0102019 0.00787815 0.0102414 0.00631114 0.0337241 0.0270662 0.000450594 0.0171432
internal_weight=8614.87 7997.95 6587.39 3742.9 2844.49 2521.5 2015.29 506.217 2423.79 2071.44 1552.61 811.578 1995.89 1410.56 1603.02 1478.23 1319.11 1169.04 205.712 963.332 610.659 243.541 1409.36 1245.84 1172.45 1004.35 168.098 392.872 271.372 741.033
internal_count=45843 40031 31647 16774 14873 13016 9895 3121 10933 9234 7267 4046 8859 8384 7127 6604 5841 5236 1085 4151 2726 1243 6259 5569 5202 4492 710 1732 1387 3221
is_linear=0
shrinkage=0.05


Tree=19
num_leaves=31
num_cat=0
split_feature=0 0 0 0 0 0 0 2 0 0 0 0 0 0 2 2 5 2 2 2 0 2 2 3 2 2 2 2 5 3
split_gain=647.496 169.469 158.042 65.0777 106.96 70.0793 115.867 53.9965 32.0352 31.5244 49.6699 43.7416 28.8929 45.5169 27.0347 24.0989 24.0551 23.6984 29.5135 24.6299 21.4329 19.975 24.4129 18.6874 18.6257 22.843 17.2863 16.9721 15.9013 14.9274
threshold=38.000000000000007 65.500000000000014 52.500000000000007 62.500000000000007 61.500000000000007 57.500000000000007 56.500000000000007 24.050000000000004 74.500000000000014 42.500000000000007 51.500000000000007 41.500000000000007 47.500000000000007 46.500000000000007 24.950000000000003 26.350000000000005 1.0000000180025095e-35 24.050000000000004 24.850000000000005 25.050000000000004 60.500000000000007 25.050000000000004 25.850000000000005 1.5000000000000002 21.050000000000004 23.950000000000003 34.550000000000004 30.950000000000003 1.0000000180025095e-35 1.5000000000000002
decision_type=2 2 2 2 2 2 2 2 2 2 2 2 2 2 2 2 2 2 2 2 2 2 2 2 2 2 2 2 2 2
left_child=-1 2 7 4 5 6 15 24 16 11 12 -9 13 -11 -12 -4 -3 -8 -19 -20 26 -16 -23 -14 -2 -26 -7 -18 -15 -10
right_child=1 8 3 -5 -6 20 17 9 29 10 14 -13 23 28 21 -17 27 18 19 -21 -22 22 -24 -25 25 -27 -28 -29 -30 -31
leaf_value=-0.050539249527684488 -0.026846784344663061 -0.027055182010382796 0.011526272157710458 0.033036551245600003 -0.0077552485392007008 0.019735239317667356 -0.024667248243814777 0.0051704537663559685 -0.010872118935949103 0.014708395976164055 0.04567612179803289 -0.027902885595752342 0.011436837537388597 -0.0041778483786920444 -0.051032434029898634 0.026239517963472916 -0.016321465693022872 0.060936623485116775 -0.040834922376108924 -0.0008308377469076275 0.040031600483689644 0.055111649217419602 -0.012676782013037178 0.029790902406756293 -0.0049769900701342046 -0.034486784503831351 0.043734070333997205 0.0073165297582932359 -0.029542483078080731 0.0048281584848321813
leaf_weight=593.30361044406891 189.44484320282936 418.53485643863678 527.14126996695995 390.03622497618198 595.71549162268639 701.82573388516903 151.68961806595325 213.77717895805836 325.48236945271492 369.94586202502251 20.376393690705299 187.79235661029816 386.33013178408146 215.5903038829565 32.316722273826599 589.56773689389229 266.74870477616787 17.922794073820114 42.292698830366135 426.40446157753468 217.64732010662556 13.856154397130011 320.27081927657127 216.34676557779312 506.63484351336956 75.328913018107414 84.017014101147652 106.15819402039051 86.613947585225105 283.05342696607113
leaf_count=5812 1117 2708 2240 1574 3136 2872 815 1038 2009 1601 107 1418 1641 1189 195 2400 1622 88 227 2198 885 72 1835 911 2775 451 339 636 523 1409
internal_value=-0.000145674 0.00360156 0.00696303 0.0137059 0.0114581 0.0156073 0.00958112 -0.00194363 -0.0121949 0.00227601 0.00531432 -0.0102962 0.0100762 0.00294847 -0.0103791 0.0192941 -0.0188271 -0.00741161 -0.00203267 -0.00444059 0.0261466 -0.0134961 -0.00986561 0.0180255 -0.0132295 -0.00879671 0.022301 -0.00959226 -0.0114475 -0.00356932
internal_weight=8572.17 7978.86 6578.89 3744.26 3354.22 2758.51 1755.02 2834.63 1399.98 2063.22 1661.65 401.57 1274.83 672.15 386.82 1116.71 791.442 638.31 486.62 468.697 1003.49 366.444 334.127 602.677 771.409 581.964 785.843 372.907 302.204 608.536
internal_count=45843 40031 31647 16774 15200 12064 7968 14873 8384 10530 8074 2456 5865 3313 2209 4640 4966 3328 2513 2425 4096 2102 1907 2552 4343 3226 3211 2258 1712 3418
is_linear=0
shrinkage=0.05


Tree=20
num_leaves=31
num_cat=0
split_feature=0 0 0 2 0 0 0 0 4 0 0 0 0 0 4 0 5 3 2 2 0 0 2 5 0 0 2 2 5 0
split_gain=607.388 153.646 142.636 60.0456 50.1941 51.4307 42.2568 59.0118 36.497 36.4694 31.7499 38.8128 40.8712 45.6759 30.7935 29.8129 27.2382 23.8151 23.1245 22.1275 21.489 40.3552 33.0399 20.7344 20.4611 33.113 26.9463 19.2549 17.6151 16.7835
threshold=38.000000000000007 65.500000000000014 52.500000000000007 29.050000000000004 42.500000000000007 51.500000000000007 47.500000000000007 46.500000000000007 1.0000000180025095e-35 41.500000000000007 62.500000000000007 61.500000000000007 58.500000000000007 56.500000000000007 1.0000000180025095e-35 57.500000000000007 1.0000000180025095e-35 1.5000000000000002 28.850000000000005 27.450000000000003 62.500000000000007 61.500000000000007 29.950000000000003 1.0000000180025095e-35 57.500000000000007 56.500000000000007 29.750000000000004 34.650000000000013 1.0000000180025095e-35 78.500000000000014
decision_type=2 2 2 2 2 2 2 2 2 2 2 2 2 2 2 2 2 2 2 2 2 2 2 2 2 2 2 2 2 2
left_child=-1 2 4 8 9 6 7 27 16 18 11 12 13 -10 -3 -15 -4 29 -2 -8 21 24 -23 -9 25 -5 -27 -6 -7 -16
right_child=1 14 3 20 5 28 19 23 10 -11 -12 -13 -14 15 17 -17 -18 -19 -20 -21 -22 22 -24 -25 -26 26 -28 -29 -30 -31
leaf_value=-0.0499789995082114 -0.012130797696724996 -0.00012104209989465196 0.026427485423393023 0.02756801792680956 0.0065200535807415977 -0.0067090542863725497 0.0067971583044477927 -0.0087529262532033379 0.010741567586102894 -0.028573057553041688 0.024649011210436136 -0.01274623345321068 0.020704362051406439 -0.018705632747336737 -0.029942244569134104 0.0085948061340672295 -0.0050082046408979463 -0.0089054245369045021 0.017752189287796278 0.02339466982805842 0.039501259803272279 0.094956598424240243 -0.0050331203192763565 -0.033696791837773937 0.033221697666463171 0.087981638219099087 0.0005211812010636473 0.040136775321752416 -0.027523022177708252 -0.008366142766699702
leaf_weight=570.5347518324852 221.76177081465721 407.45780354738235 387.81583668291569 367.62156166136265 457.11614449322224 376.80992166697979 470.07883170247078 287.45207892358303 602.07973924279213 266.42114648222923 192.0443751513958 312.37705330550671 382.6196778267622 318.38744984567165 356.29063111543655 145.79247486591339 83.797945693135262 505.1442529708147 91.429921656847 350.56752869486809 149.00332367420197 8.625021427869795 196.11518487334251 117.31089164316654 352.2021122276783 9.1501590162515622 234.64616584777832 46.973320811986923 139.20495100319386 120.65358251333237
leaf_count=5812 1248 2315 1651 1483 2096 2121 2157 1595 2534 2036 775 1647 1561 1705 2596 604 456 2764 400 1445 605 40 1045 724 1425 41 1202 194 857 709
internal_value=-0.000145094 0.00342813 0.00662406 0.0130264 -0.00185676 0.00152926 0.00566253 -0.00176406 0.00835823 -0.0149747 0.00534412 0.00323915 0.00668558 0.00165504 -0.0116768 -0.0101309 0.0208419 -0.0164711 -0.00340707 0.0138874 0.0216193 0.0193387 -0.000820887 -0.0159823 0.0236221 0.0180923 0.00380375 0.00965261 -0.012324 -0.0244841
internal_weight=8527.49 7956.95 6567.4 3742.28 2825.13 2245.51 1729.5 908.852 2424.91 579.613 1953.3 1761.26 1448.88 1066.26 1389.55 464.18 471.614 982.088 313.192 820.646 1317.36 1168.36 204.74 404.763 963.62 611.418 243.796 504.089 516.015 476.944
internal_count=45843 40031 31647 16774 14873 11189 8211 4609 10933 3684 8826 8051 6404 4843 8384 2309 2107 6069 1648 3602 5841 5236 1085 2319 4151 2726 1243 2290 2978 3305
is_linear=0
shrinkage=0.05


Tree=21
num_leaves=31
num_cat=0
split_feature=0 0 0 2 2 0 0 2 0 0 0 0 0 5 0 0 0 0 0 3 5 2 2 5 3 2 2 2 2 2
split_gain=569.859 139.304 128.746 57.3663 48.4015 42.695 69.9175 42.5892 37.8292 43.8441 36.079 47.1874 34.4783 29.2885 29.1084 28.8885 46.2188 24.6694 18.604 17.5028 16.976 15.2404 14.5489 13.4335 16.1064 13.3349 13.2192 12.9084 55.7722 21.2192
threshold=38.000000000000007 65.500000000000014 52.500000000000007 23.050000000000004 22.050000000000004 62.500000000000007 61.500000000000007 23.950000000000003 58.500000000000007 56.500000000000007 42.500000000000007 51.500000000000007 41.500000000000007 1.0000000180025095e-35 57.500000000000007 47.500000000000007 46.500000000000007 78.500000000000014 40.500000000000007 1.5000000000000002 1.0000000180025095e-35 35.350000000000001 34.650000000000013 1.0000000180025095e-35 1.5000000000000002 30.950000000000003 32.95000000000001 24.050000000000004 24.950000000000003 25.150000000000002
decision_type=2 2 2 2 2 2 2 2 2 2 2 2 2 2 2 2 2 2 2 2 2 2 2 2 2 2 2 2 2 2
left_child=-1 2 4 -4 -2 6 8 -8 9 21 12 15 18 17 23 16 22 -3 -6 26 -18 -5 -12 24 -11 -15 -17 -9 -29 -30
right_child=1 13 3 5 10 -7 7 27 -10 14 11 -13 -14 25 -16 19 20 -19 -20 -21 -22 -23 -24 -25 -26 -27 -28 28 29 -31
leaf_value=-0.049427986788012385 -0.020263475673403478 -0.023621779882531144 -0.0022366912810378959 0.017727713536459008 -0.0099155378644411093 0.031737843343930837 0.078205131704887104 -0.036653387521975993 0.026937214366245521 0.010543118579961812 0.0085998713897795769 -0.010663853133234279 -0.026188182350432077 -0.0075543008037138792 0.018734480989287688 0.005213067880040138 -0.0056111288520241855 -0.0023364501575281363 0.017043564918620958 0.0249706721351362 -0.030008423247675275 0.039411873507700312 0.037914911441144228 -0.015481886963085917 -0.010564782863407072 0.0091269325821050438 0.027146731671777214 0.086605609363423958 -0.040772915552826708 -0.0043563774909177802
leaf_weight=548.60700631141663 314.41137313842773 533.38949647545815 568.92776700854301 872.80123971402645 167.32022030651569 340.34416955709457 15.104158833622931 34.245608896017075 637.66769589483738 229.39552901685238 407.28181150555611 453.51894170045853 221.83800053596497 506.43133564293385 223.81998075544834 395.66834986209869 253.35107906162739 182.76874005794525 103.62674148380756 268.44929121434689 99.225087627768517 89.323782503604889 47.232695206999779 149.33371375501156 149.12625953555107 156.92858116328716 83.126623809337616 16.079224959015846 44.870751515030861 368.57934172451496
leaf_count=5812 1857 3495 2679 3582 869 1383 73 182 2584 1118 1822 2628 1734 2967 911 1739 1408 1008 518 1147 622 361 194 832 794 914 335 81 237 1957
internal_value=-0.000144114 0.0032636 0.00630301 0.0123828 -0.00177365 0.0150061 0.0129941 -0.00441996 0.0165405 0.0126721 0.000551118 0.00352644 -0.0115719 -0.0111779 0.00362423 0.00766684 0.00110796 -0.0181896 0.000395277 0.014751 -0.0124772 0.0197409 0.0116463 -0.00278279 0.00222724 -0.00360808 0.00902111 -0.00711088 -0.00475551 -0.00830858
internal_weight=8482.79 7934.19 6554.67 3739.62 2815.05 3170.69 2830.35 478.879 2351.47 1713.8 2500.64 2007.85 492.785 1379.52 751.675 1554.33 807.091 716.158 270.947 747.244 352.576 962.125 454.515 527.856 378.522 663.36 478.795 463.775 429.529 413.45
internal_count=45843 40031 31647 16774 14873 14095 12712 2530 10182 7598 13016 9895 3121 8384 3655 7267 4046 4503 1387 3221 2030 3943 2016 2744 1912 3881 2074 2457 2275 2194
is_linear=0
shrinkage=0.05


Tree=22
num_leaves=31
num_cat=0
split_feature=0 0 0 2 2 4 0 0 0 0 0 0 0 2 0 5 2 3 2 2 0 0 2 0 0 2 0 0 2 2
split_gain=534.707 126.253 116.183 52.3919 44.7382 32.5809 28.4629 26.6407 32.1886 34.6234 23.2899 36.6275 35.2174 24.218 23.8029 22.7479 22.2808 23.4074 19.0822 21.7742 18.0693 33.1051 28.9068 17.1449 26.6718 23.4539 16.6726 16.9427 15.9799 14.5531
threshold=38.000000000000007 65.500000000000014 52.500000000000007 29.050000000000004 24.050000000000004 1.0000000180025095e-35 69.500000000000014 62.500000000000007 61.500000000000007 60.500000000000007 42.500000000000007 51.500000000000007 41.500000000000007 24.950000000000003 50.500000000000007 1.0000000180025095e-35 31.950000000000003 1.5000000000000002 25.050000000000004 25.850000000000005 62.500000000000007 61.500000000000007 29.950000000000003 57.500000000000007 56.500000000000007 29.750000000000004 47.500000000000007 51.500000000000007 21.050000000000004 30.050000000000004
decision_type=2 2 2 2 2 2 2 2 2 2 2 2 2 2 2 2 2 2 2 2 2 2 2 2 2 2 2 2 2 2
left_child=-1 2 4 5 26 15 -3 8 9 28 12 14 -6 -13 -12 -4 17 -8 -15 -20 21 23 -23 24 -5 -26 -2 -28 -7 -27
right_child=1 6 3 20 10 7 16 -9 -10 -11 11 13 -14 18 -16 -17 -18 -19 19 -21 -22 22 -24 -25 25 29 27 -29 -30 -31
leaf_value=-0.04888464722805861 -0.018853479132504469 -0.02200518551408235 0.02424907328718626 0.025048229821600987 0.0048324269379316775 -0.015063934207231112 -0.017801160739333653 0.022283390410513682 -0.012003944286147327 0.033312970811431752 0.0060303673435716269 0.043773866979902848 -0.025301421339490704 -0.04949275723634488 0.02564519005342672 -0.0045396755748864847 0.01110406803244619 -0.00087379440415586329 0.052416907824299974 -0.011114915509584712 0.036288413729613514 0.087550091543923986 -0.004585827460961471 0.03040530054763322 0.081170973795195056 -0.032858566847098231 0.0045890809109982921 -0.01827245602995313 0.0051814275109153219 0.0052496290333203981
leaf_weight=527.50526121258736 412.59318885207176 395.61141310632229 389.78944209218025 367.50096151232719 213.99485479295254 105.79689934849739 412.6940543949604 191.12888589501381 309.69088976085186 105.66366362571716 1096.0905468016863 20.639244765043259 177.28549814224243 30.889804601669312 180.07868604362011 83.277718499302864 157.68861870467663 404.30162796378136 14.092006072401999 313.89251028001308 147.63415113091469 8.9011576920747739 195.21283751726151 351.19073957204819 9.3968985676765424 28.525804430246353 216.44400990009308 129.54828588664532 1238.0676672160625 205.78705072402954
leaf_count=5812 2524 2594 1651 1483 1038 514 2723 775 1647 429 5111 107 1418 195 754 456 941 2126 72 1835 605 40 1045 1425 41 150 1050 769 5461 1052
internal_value=-0.000142838 0.00310627 0.00599645 0.011769 -0.00169371 0.00740966 -0.0106942 0.00455442 0.00262827 0.00575443 0.00214998 0.00474269 -0.00882094 -0.00889452 0.00879819 0.0191812 -0.00610323 -0.00942442 -0.0119235 -0.00838524 0.0198079 0.0177221 -0.000567895 0.0216012 0.0165426 0.00371649 -0.0120655 -0.00397086 0.00358759 0.000610247
internal_weight=8440.91 7913.41 6543.11 3737.56 2805.55 2423.42 1370.3 1950.35 1759.22 1449.53 2046.96 1655.68 391.28 379.514 1276.17 473.067 974.684 816.996 358.874 327.985 1314.15 1166.52 204.114 962.401 611.211 243.71 758.585 345.992 1343.86 234.313
internal_count=45843 40031 31647 16774 14873 10933 8384 8826 8051 6404 10530 8074 2456 2209 5865 2107 5790 4849 2102 1907 5841 5236 1085 4151 2726 1243 4343 1819 5975 1202
is_linear=0
shrinkage=0.05


Tree=23
num_leaves=31
num_cat=0
split_feature=0 2 0 0 2 2 2 2 2 0 0 0 0 4 2 2 2 0 0 2 3 2 0 2 2 2 5 0 0 0
split_gain=501.767 115.211 67.4144 61.685 53.3937 79.9501 33.768 49.7099 44.239 27.1651 53.8751 30.4224 44.8046 23.8362 20.7513 25.5227 41.7391 19.2791 28.8833 20.5907 17.5344 19.251 16.4597 14.2628 14.1602 13.7068 13.4376 17.2144 13.3217 13.0751
threshold=38.000000000000007 25.150000000000002 65.500000000000014 52.500000000000007 24.950000000000003 24.050000000000004 21.050000000000004 23.950000000000003 23.350000000000005 62.500000000000007 61.500000000000007 57.500000000000007 56.500000000000007 1.0000000180025095e-35 22.950000000000003 22.050000000000004 21.950000000000003 51.500000000000007 47.500000000000007 25.650000000000002 1.5000000000000002 26.750000000000004 61.500000000000007 25.950000000000003 23.050000000000004 25.750000000000004 1.0000000180025095e-35 41.500000000000007 62.500000000000007 40.500000000000007
decision_type=2 2 2 2 2 2 2 2 2 2 2 2 2 2 2 2 2 2 2 2 2 2 2 2 2 2 2 2 2 2
left_child=-1 4 3 17 5 6 -2 8 14 10 11 12 -5 -4 15 16 -8 18 26 -19 21 -20 -7 -14 -16 -12 -3 -28 -24 -17
right_child=1 2 13 9 -6 22 7 -9 -10 -11 25 -13 23 -15 24 29 -18 19 20 -21 -22 -23 28 -25 -26 -27 27 -29 -30 -31
leaf_value=-0.048347539776457997 -0.017171840883460118 0.0032291875182848292 0.0063622371922449298 0.01973989150896345 -0.022468964562486156 0.01300086847306782 0.010648093541322082 -0.022638080945159525 0.016918653680524746 0.030498147583797115 0.06018653361630949 0.025604034295015912 0.043638522671756677 -0.0119780999945389 -0.020683528079751767 -0.033786155820002661 -0.024033927190681051 0.063317239474355955 -0.016181676372328254 -0.010227404751856635 0.027448980659239858 0.014134941307607283 0.079630853597969897 -0.0026725604251535491 0.00059158894614565541 -0.0054393106666532701 0.028983955033094394 -0.017498794836179447 0.02556725578154749 0.015892208202072825
leaf_weight=507.21258515119553 545.03954455256462 703.48099292814732 268.09469377994537 713.90122187137604 375.5631245225668 419.11147516965866 166.38712251186371 260.84829026460648 335.48710475862026 262.73809476196766 8.1370074450969678 657.35218168795109 17.334091275930405 522.29554045200348 239.95896960794926 13.992996096611021 181.25217075645924 9.8129644989967328 65.417298704385757 315.7571677416563 181.71764604747295 262.4217339605093 16.653339594602585 406.71947699785233 116.02801558375359 358.8491937071085 22.669329553842545 164.11778120696545 36.082275256514549 247.77775803208351
leaf_count=5812 3145 3649 1542 2906 2127 1876 827 1541 1552 1078 41 2668 88 3283 1394 88 1066 49 287 1854 751 1083 81 2103 545 1916 105 1089 147 1150
internal_value=-0.000141087 0.00295593 0.0076264 0.0101751 -0.00485535 -0.00229001 -0.00645658 -0.00271698 0.00127752 0.0153167 0.013472 0.0170403 0.0120934 -0.00575719 -0.00415796 0.00144479 -0.00743442 0.00294862 0.00549753 -0.00801071 0.0149909 0.00808554 0.0163135 -0.000779496 -0.0137493 -0.00398422 6.38633e-05 -0.0118574 0.04264 0.0132366
internal_weight=8402.21 7895 4940.82 4150.43 2954.18 2578.62 2106.77 1561.73 1300.88 2425.03 2162.29 1795.31 1137.95 790.39 965.397 609.41 347.639 1725.39 1399.82 325.57 509.557 327.839 471.847 424.054 355.987 366.986 890.268 186.787 52.7356 261.771
internal_count=45843 40031 24492 19667 15539 13412 11308 8163 6622 10800 9722 7765 5097 4825 5070 3131 1893 8867 6964 1903 2121 1370 2104 2191 1939 1957 4843 1194 228 1238
is_linear=0
shrinkage=0.05


Tree=24
num_leaves=31
num_cat=0
split_feature=0 2 0 2 2 0 2 2 2 0 0 0 0 4 2 2 2 0 0 2 3 2 0 3 2 0 4 5 0 0
split_gain=470.881 104.362 60.4065 57.0712 72.1145 56.263 30.8539 45.4509 39.7976 25.0258 48.7209 27.3389 39.9355 21.66 18.8819 23.0172 38.1124 17.2314 26.2452 17.579 15.987 17.3479 14.6815 13.0185 13.011 12.9398 12.6304 12.3706 16.477 12.6731
threshold=38.000000000000007 25.050000000000004 65.500000000000014 24.950000000000003 24.050000000000004 52.500000000000007 21.050000000000004 23.950000000000003 23.350000000000005 62.500000000000007 61.500000000000007 57.500000000000007 56.500000000000007 1.0000000180025095e-35 22.950000000000003 22.050000000000004 21.950000000000003 51.500000000000007 47.500000000000007 25.850000000000005 1.5000000000000002 26.750000000000004 60.500000000000007 1.5000000000000002 23.050000000000004 61.500000000000007 1.0000000180025095e-35 1.0000000180025095e-35 41.500000000000007 42.500000000000007
decision_type=2 2 2 2 2 2 2 2 2 2 2 2 2 2 2 2 2 2 2 2 2 2 2 2 2 2 2 2 2 2
left_child=-1 3 5 4 6 17 -2 8 14 10 11 12 -7 -4 15 16 -8 18 27 -19 21 -20 -6 -15 -16 -10 -18 -3 -29 -30
right_child=1 2 13 -5 22 9 7 -9 25 -11 -12 -13 -14 23 24 -17 26 19 20 -21 -22 -23 -24 -25 -26 -27 -28 28 29 -31
leaf_value=-0.047815327225884274 -0.01646100012298166 0.002957261444297055 0.0060227462660346559 -0.024127855090385758 0.011752800562348696 0.018603149713803471 0.010073212619927599 -0.021773978398748037 0.012608985345178731 0.029074700864495845 -0.0038563774452175584 0.024190277526289224 -0.00071483479624098387 -0.020849087068003119 -0.019866089129311773 0.01253153840621498 0.0043289516106683459 0.04581898247490919 -0.014625906038524978 -0.010175671521032069 0.025823857363931307 0.013403925509486762 0.036481559714523423 -0.0047768735470531442 0.00056190923430588305 0.04431614230157422 -0.029560013977536371 0.027856186495999941 -0.036196697944668808 -0.0069491805806765859
leaf_weight=487.7106177508831 540.27164477109909 712.89602391421795 269.02186352014542 334.96358885616064 403.17580485343933 721.41486939787865 167.07065008580685 257.72132863104343 300.96483297646046 262.94348035752773 367.39673380553722 663.67556528747082 425.22208012640476 215.70547266304493 237.40742087364197 262.61943688988686 33.926506415009499 14.680006310343741 69.872632056474686 310.14449800550938 185.90659861266613 262.88457772135735 70.519480690360069 302.94537384808064 116.04807634651661 36.029529765248299 145.01500490307808 23.275351718068123 56.754297949373722 106.61384747922421
leaf_count=5812 3145 3692 1542 1962 1806 2934 827 1541 1398 1084 1963 2696 2198 1578 1394 1238 192 72 308 1835 766 1083 298 1705 545 154 874 107 468 626
internal_value=-0.000139338 0.00281253 0.00721248 -0.00471526 -0.00218586 0.00960397 -0.00616594 -0.00259316 0.00121208 0.014504 0.0127447 0.0161139 0.0114392 -0.00548977 -0.00396738 0.00137059 -0.00710045 0.00274272 0.00512194 -0.00764507 0.0140796 0.0075182 0.0154342 -0.0114613 -0.0131591 0.0159989 -0.0231348 -4.29271e-05 -0.0115023 -0.0171098
internal_weight=8364.8 7877.09 4971.35 2905.73 2570.77 4183.68 2097.07 1556.8 1299.08 2440.65 2177.71 1810.31 1146.64 787.673 962.087 608.632 346.012 1743.03 1418.2 324.825 518.664 332.757 473.695 518.651 353.455 336.994 178.942 899.54 186.643 163.368
internal_count=45843 40031 24657 15374 13412 19832 11308 8163 6622 10875 9791 7828 5132 4825 5070 3131 1893 8957 7050 1907 2157 1391 2104 3283 1939 1552 1066 4893 1201 1094
is_linear=0
shrinkage=0.05


Tree=25
num_leaves=31
num_cat=0
split_feature=0 2 0 0 4 2 2 0 2 2 2 2 2 2 2 2 2 5 2 2 2 2 2 2 0 2 2 2 2 0
split_gain=441.918 95.2274 66.4323 73.5101 34.2163 30.3294 62.6338 27.6912 26.1859 29.2499 20.7144 34.9848 31.2042 39.8128 20.4336 21.6378 19.495 17.9526 17.4917 45.3057 29.3465 19.0942 41.9263 17.3695 17.4651 17.1408 20.5996 19.6812 42.3203 19.4031
threshold=38.000000000000007 30.050000000000004 65.500000000000014 47.500000000000007 1.0000000180025095e-35 30.850000000000005 31.050000000000004 74.500000000000014 23.050000000000004 29.950000000000003 29.050000000000004 28.950000000000003 28.050000000000004 27.950000000000003 22.050000000000004 29.950000000000003 29.050000000000004 1.0000000180025095e-35 27.050000000000004 26.950000000000003 26.350000000000005 24.950000000000003 25.050000000000004 30.950000000000003 62.500000000000007 31.950000000000003 32.050000000000004 32.95000000000001 33.050000000000004 53.500000000000007
decision_type=2 2 2 2 2 2 2 2 2 2 2 2 2 2 2 2 2 2 2 2 2 2 2 2 2 2 2 2 2 2
left_child=-1 2 3 14 17 -3 23 -4 -6 10 11 12 13 18 -2 16 -16 -5 19 20 21 -10 -23 -7 -25 -8 29 -28 -29 -27
right_child=1 5 7 4 8 6 25 -9 9 -11 -12 -13 -14 -15 15 -17 -18 -19 -20 -21 -22 22 -24 24 -26 26 27 28 -30 -31
leaf_value=-0.047286762763306282 -0.025464621338757921 0.030007618946080308 -0.02013393541508475 0.018565762720553904 -0.0061585676292988806 0.018545689637212509 0.026568131583721635 -0.0036679020674622075 0.0096621929910070247 -0.02729632490878971 0.023507173307637783 -0.027179943951145747 0.027017513919063426 -0.028006528431816738 -0.0069881152375987181 -0.049248924849958756 0.027596581391550468 -0.0027110317001269825 0.018941795383685386 -0.028402863150728503 0.027960697607713931 -0.028365665856662642 0.0045373635163218134 -0.037634052740134018 -0.0038350440778904672 -0.029882334861058964 0.030784782373255371 -0.019632169436309906 0.013613268982733233 0.0061745786862293052
leaf_weight=468.97991606593132 173.252282358706 202.6080966591835 533.97497636824846 594.67378748953342 636.91162258386612 27.967719048261642 195.15429303050041 489.30097572505474 663.23589371144772 66.686698406934738 162.27647121250629 81.363236874341965 165.99786080420017 90.245145633816719 816.37645851820707 28.898123696446419 42.887617081403732 118.97669893503189 228.53780499100685 100.07322634756565 142.06402194499969 125.21574248373508 426.89948612451553 95.970556527376175 63.517532199621201 55.401455238461494 137.87641307711601 104.22952677309513 1173.1505813896656 114.26186640560627
leaf_count=5812 1126 862 3578 2607 3155 119 830 2841 2957 350 682 422 706 473 4620 193 202 668 972 527 611 681 1919 554 386 310 588 619 5853 620
internal_value=-0.000137372 0.0026766 -0.000723297 0.00180761 0.00521435 0.0115876 0.00969076 -0.0122604 0.00279289 0.00532388 0.00631904 0.00494071 0.00628628 0.00434888 -0.00975716 -0.00669313 -0.00526192 0.0150186 0.00608071 0.00406406 0.00645764 0.00394411 -0.00292481 -0.0177998 -0.0241733 0.0125857 0.0108641 0.0128377 0.0109006 -0.00559936
internal_weight=8326.97 7857.99 5687.85 4664.57 3603.16 2170.14 1967.53 1023.28 2889.51 2252.6 2185.91 2023.63 1942.27 1776.27 1061.41 888.162 859.264 713.65 1686.03 1457.49 1357.42 1215.35 552.115 187.456 159.488 1780.07 1584.92 1415.26 1277.38 169.663
internal_count=45843 40031 29290 22871 16730 10741 9879 6419 13455 10300 9950 9268 8846 8140 6141 5015 4822 3275 7667 6695 6168 5557 2600 1059 940 8820 7990 7060 6472 930
is_linear=0
shrinkage=0.05


Tree=26
num_leaves=31
num_cat=0
split_feature=0 2 0 0 2 2 2 2 2 0 0 0 0 4 2 2 2 0 0 0 2 2 0 2 3 3 2 2 2 2
split_gain=414.716 86.8883 49.7844 47.7102 42.376 61.7699 26.7585 41.4796 33.3827 21.9113 40.4308 23.8638 33.4887 19.1398 17.6932 20.1007 34.743 15.3369 24.7163 23.9348 16.3102 15.9005 13.2325 12.4091 12.3652 12.2685 12.0681 11.8924 14.4666 55.706
threshold=38.000000000000007 25.150000000000002 65.500000000000014 52.500000000000007 24.950000000000003 24.050000000000004 21.050000000000004 23.950000000000003 23.350000000000005 62.500000000000007 61.500000000000007 57.500000000000007 56.500000000000007 1.0000000180025095e-35 22.950000000000003 22.050000000000004 21.950000000000003 42.500000000000007 41.500000000000007 51.500000000000007 25.650000000000002 25.850000000000005 61.500000000000007 25.950000000000003 1.5000000000000002 1.5000000000000002 36.45000000000001 25.950000000000003 26.050000000000004 26.950000000000003
decision_type=2 2 2 2 2 2 2 2 2 2 2 2 2 2 2 2 2 2 2 2 2 2 2 2 2 2 2 2 2 2
left_child=-1 4 3 17 5 6 -2 8 14 10 11 12 26 24 15 16 -8 18 -3 -19 -21 -20 -7 -14 -4 -15 -5 -12 -29 -30
right_child=1 2 13 9 -6 22 7 -9 -10 -11 27 -13 23 25 -16 -17 -18 19 21 20 -22 -23 -24 -25 -26 -27 -28 28 29 -31
leaf_value=-0.046760689852668832 -0.015393785644866778 0.0051812698713689142 -0.0036635826107867552 0.014942118099533967 -0.02023363626519762 0.011287734779302212 0.0099585370373955415 -0.020868217748436786 0.014717927512713584 0.027045756900062962 0.048841734231717247 0.022350350546606074 0.040189730687417713 -0.019862912241308886 -0.012501731492162696 0.012006359448878703 -0.021896134073553692 0.0082990389921178114 0.07398145057671178 0.054650915627331709 -0.0092858463060695225 -0.025205184894296517 0.03774568674527496 -0.0025526961340849429 0.017913753978593152 -0.0041524354865589454 0.037741698648466875 -0.037618030844347165 0.11870652326330106 -0.0054989293148916159
leaf_weight=451.00008448958397 532.62724051624537 179.08552567660809 151.15905326604843 651.7598789781332 364.57991584390402 422.16588994115591 167.02757301926613 254.18273118883371 338.49858435988426 259.29667203128338 10.536141186952589 655.37500637769699 17.722237944602966 211.7648693472147 350.11502756923437 263.27112728357315 175.57569715380669 1072.4527005106211 4.1572118178009978 10.30418226122856 311.91190376877785 144.03981024026871 53.214175179600716 405.97697660326958 118.40630309283733 300.74846564233303 63.713399767875671 31.12727002799511 9.2945429086685163 314.03621509671211
leaf_count=5812 3145 843 905 2646 2127 1876 827 1541 1552 1078 52 2668 88 1578 1939 1238 1066 4894 34 49 1854 1193 228 2103 637 1705 260 170 46 1689
internal_value=-0.000135783 0.00254493 0.00659865 0.00878385 -0.00428636 -0.00201229 -0.00572656 -0.00240176 0.00122427 0.0133122 0.0116632 0.0147486 0.0103753 -0.0049711 -0.00355359 0.00161725 -0.00636619 0.00242283 -0.00731815 0.00470871 -0.00724121 -0.0224228 0.0142494 -0.000764891 0.00581424 -0.0106438 0.0169724 -0.00350659 -0.00506262 -0.00192849
internal_weight=8295.13 7844.13 4922.87 4140.79 2921.26 2556.68 2081.3 1548.67 1294.49 2418.84 2159.54 1794.55 1139.17 782.079 955.989 605.874 342.603 1721.95 327.283 1394.67 322.216 148.197 475.38 423.699 269.565 512.513 715.473 364.994 354.458 323.331
internal_count=45843 40031 24492 19667 15539 13412 11308 8163 6622 10800 9722 7765 5097 4825 5070 3131 1893 8867 2070 6797 1903 1227 2104 2191 1542 3283 2906 1957 1905 1735
is_linear=0
shrinkage=0.05


Tree=27
num_leaves=31
num_cat=0
split_feature=0 2 0 0 4 2 2 0 3 0 2 2 2 2 2 2 2 2 2 2 0 0 2 2 2 0 2 2 0 5
split_gain=389.199 82.0934 53.7578 64.059 30.6565 26.2961 55.2161 25.8945 23.6233 23.0913 23.0084 24.4563 20.9792 20.847 32.1396 37.1428 31.9355 19.516 34.4262 27.4236 22.1383 20.6931 18.3636 19.0271 18.6316 16.3545 15.6441 15.2655 16.3789 14.9506
threshold=38.000000000000007 30.050000000000004 65.500000000000014 47.500000000000007 1.0000000180025095e-35 30.850000000000005 31.050000000000004 78.500000000000014 1.5000000000000002 62.500000000000007 21.050000000000004 29.950000000000003 20.950000000000003 29.050000000000004 28.950000000000003 28.050000000000004 27.950000000000003 27.050000000000004 26.950000000000003 26.350000000000005 61.500000000000007 61.500000000000007 20.650000000000002 29.950000000000003 29.050000000000004 40.500000000000007 20.250000000000004 30.950000000000003 62.500000000000007 1.0000000180025095e-35
decision_type=2 2 2 2 2 2 2 2 2 2 2 2 2 2 2 2 2 2 2 2 2 2 2 2 2 2 2 2 2 2
left_child=-1 2 3 22 29 -3 27 8 -4 10 12 13 26 14 15 16 17 18 19 -12 -19 -21 -2 24 -24 -26 -6 -7 -29 -5
right_child=1 5 7 4 9 6 -8 -9 -10 -11 11 -13 -14 -15 -16 -17 -18 20 -20 21 -22 -23 23 -25 25 -27 -28 28 -30 -31
leaf_value=-0.046236040567169422 -0.033921743280388147 0.027847052213413215 -0.025835313714086084 0.017187979312123076 -0.015468863542926432 0.016977234728197808 0.011631893001903038 0.0015067586604279725 -0.0077134216991394432 0.018418881199259465 0.00092130388740125724 -0.027923773250584 -0.047040148715800895 0.021791480566163798 -0.02958194814258984 0.027439342490605201 -0.028258324847441531 0.014167286333143684 -0.027792599951627573 0.020936276290893063 0.10283218761888463 0.1236585292968857 -0.0078805454232304673 -0.048221785987136744 -0.047615350407359175 0.038562360004651783 0.020303425123602989 -0.036384997980871081 -0.0034520224776157164 -0.0022730415763090018
leaf_weight=433.75016447901726 70.752320304512978 202.63308158516884 340.472212895751 596.40497015416622 129.17043098807335 27.94266127794981 1778.9786210656166 286.35150182247162 381.16136512160301 208.66922442615032 1510.9394461363554 64.320264920592308 40.567188128829002 143.57901939749718 77.107220381498337 148.09412445127964 86.311809673905373 201.52389870584011 97.408717125654221 122.72111463546753 7.294984742999076 5.1067153066396704 912.05841539055109 27.936500236392021 6.4727105349302283 36.838111862540245 40.035960480570793 93.827244512736797 63.173682481050491 118.25703550875187
leaf_count=5812 480 862 2591 2607 690 119 8820 1601 2227 860 7069 344 234 603 409 630 462 851 522 524 37 24 5266 193 28 174 196 554 386 668
internal_value=-0.00013375 0.0024214 -0.000747037 0.0015214 0.00469748 0.0106981 0.00892871 -0.0112152 -0.0162635 0.00239938 0.00114936 0.00250248 -0.014747 0.00331788 0.00214243 0.00326484 0.00150237 0.00282305 0.00108607 0.00280262 0.0172648 0.02504 -0.0093186 -0.00754832 -0.00635896 0.0256833 -0.00700477 -0.0170733 -0.0231335 0.0139677
internal_weight=8259.86 7826.11 5659.56 4651.57 3597.51 2166.56 1963.92 1007.99 721.634 2882.85 2674.18 2464.41 209.774 2400.09 2256.51 2179.4 2031.31 1944.99 1736.18 1638.77 208.819 127.828 1054.06 983.306 955.369 43.3108 169.206 184.944 157.001 714.662
internal_count=45843 40031 29290 22871 16730 10741 9879 6419 4818 13455 12595 11475 1120 11131 10528 10119 9489 9027 8139 7617 888 548 6141 5661 5468 202 886 1059 940 3275
is_linear=0
shrinkage=0.05


Tree=28
num_leaves=31
num_cat=0
split_feature=0 2 0 0 4 0 2 2 0 2 2 2 2 2 2 2 2 2 2 2 2 0 0 0 2 2 0 2 0 2
split_gain=365.214 73.9542 48.8725 58.0114 27.5503 24.5268 23.7305 49.9121 20.9153 21.2699 23.0903 17.6897 30.3975 31.8263 30.3226 17.1417 17.875 16.7527 16.075 32.9266 23.0091 18.7462 17.4786 14.8787 14.7733 17.8764 17.6347 17.196 14.6831 13.9548
threshold=38.000000000000007 30.050000000000004 65.500000000000014 47.500000000000007 1.0000000180025095e-35 74.500000000000014 30.850000000000005 31.050000000000004 62.500000000000007 22.050000000000004 29.950000000000003 29.050000000000004 28.950000000000003 28.050000000000004 27.950000000000003 20.650000000000002 29.950000000000003 29.050000000000004 27.050000000000004 26.950000000000003 26.350000000000005 61.500000000000007 61.500000000000007 61.500000000000007 31.950000000000003 32.050000000000004 53.500000000000007 32.350000000000001 40.500000000000007 30.950000000000003
decision_type=2 2 2 2 2 2 2 2 2 2 2 2 2 2 2 2 2 2 2 2 2 2 2 2 2 2 2 2 2 2
left_child=-1 2 3 15 -5 -4 -3 29 9 -6 11 12 13 14 18 -2 17 -17 19 20 -11 -20 -22 -15 -9 26 -26 -27 -19 -8
right_child=1 6 5 4 8 -7 7 24 -10 10 -12 -13 -14 23 -16 16 -18 28 21 -21 22 -23 -24 -25 25 27 -28 -29 -30 -31
leaf_value=-0.045711807922403321 -0.032944439099731236 0.026431494935593894 -0.018302209855577421 0.013238270705326835 -0.010165738847750743 -0.0026366507446518358 0.016120331478990051 0.024000297196264467 0.017548489032024949 0.0015247579475768443 -0.026867133612813017 0.020664278058503821 -0.028483023954292114 0.023144100093996395 -0.027199180487594645 -0.0075170743998522237 -0.047232335213663365 -0.045868278622068319 0.013434083617133139 -0.026746547258725523 0.019824910874820158 0.093264799939556553 0.11223693529914136 0.11420798411881322 -0.029240065720272514 0.048660570403356473 0.0052293728119380857 0.010447930003563184 0.036187907707854537 -0.022257398834918007
leaf_weight=417.20867785811424 69.247418269515038 202.80613341927528 517.41133494675159 716.28074912726879 362.68580368161201 483.18276034295559 27.95622705668211 195.19984351843596 208.08334645628929 1356.8111169934273 63.527936309576035 143.83362711966038 76.104044213891029 143.93876723945141 85.217554435133934 908.44564793258905 27.116597548127174 6.3855251371860495 201.88685657083988 96.189069539308548 123.1103323251009 7.6317998170852652 5.3385730087757102 4.629808858036994 54.843877278268337 30.078527972102165 114.72373832762241 1388.9873624294996 37.280601859092712 155.09510457515717
